# Weight matrix W1
W1_shape: 128,784
0.02508785327896964 -0.006983401782440269 0.0327132112419858 0.07692462424397774 -0.011826531364613256 -0.011825702141796306 0.07976229219871261 0.03876130722157737 -0.023712037277713923 0.027403420430036025 -0.023406128079251173 -0.02352290478213345 0.012220940215403119 -0.09663524537912754 -0.0871215068828262 -0.028399808921637206 -0.05115569667037422 0.01587188713199304 -0.045862141520121 -0.07133210887921751 0.07402644166729615 -0.011403425221802925 0.0034106893897274393 -0.07196065028248351 -0.02749547971946892 0.005602436812187105 -0.05813395454981955 0.018975615460755182 -0.030336835048899356 -0.01473275917918272 -0.03039077327087078 0.09355417606501264 -0.0006817127956708497 -0.05342246931427427 0.041545035575135086 -0.061631061075035576 0.010791270347371587 -0.09862297958374343 -0.06650031749335401 0.011101789715846848 0.03869351895015773 0.009037042732044706 -0.005456707502596204 -0.014659680526289416 -0.07453262598996258 -0.036148556102053024 -0.022978347393838684 0.053619140777894744 0.017513577245578567 -0.08892078383787949 0.01650214754293572 -0.01943910865526381 -0.03418972405362183 0.030894317980742783 0.05207333955406995 0.04703674910080569 -0.042386885825807616 -0.015617583413656948 0.01673132990747034 0.049272469624408045 -0.02420183486146004 -0.009367890030935924 -0.05567055681081834 -0.0597101181027103 0.0428070343673698 0.0721087072992641 0.00219889923317465 0.056200506950414626 0.023465382272612943 -0.02819249045799353 0.024111065865721953 0.08224229227097622 0.0009257994856488873 0.08214080843571953 -0.1297336007120718 0.0434727387679295 0.005953365165375828 -0.013501647990497332 0.006046179083377585 -0.0996799012720738 -0.011050949990146731 0.01787525285978365 0.07464492149371006 -0.026176598987737727 -0.0408350935108369 -0.0253425577161957 0.046233041131532066 0.01661373988210597 -0.02663524522368356 0.026526088303189005 0.005976316605046784 0.0504784269477295 -0.03152852409961246 -0.009218516884260633 -0.009859499655930333 -0.06459020977297979 0.02241845879345546 0.020331441578345225 0.00742466397943678 -0.006165817311362216 -0.0645437215158124 -0.013323796640747385 -0.010165351677689201 -0.03383581625136733 -0.0035910253645258646 0.02476723060661637 0.09903910426951251 0.012414797637008215 0.015128223507348056 -0.003953590650396154 -0.09683099988756068 -0.001339152937548341 0.0030420849915420854 0.12441288348584549 -0.009716431475388329 0.015249358886967355 -0.0014097712160142232 -0.05732716361654303 0.05905050137576567 0.039889424485999345 0.046796330442265915 -0.03381164118695545 0.08736527020979679 -0.0589152730419405 0.037480902180698925 0.11473822670145416 -0.05077509737670824 -0.03175109701886727 0.008239985068514501 -0.02150613657596753 -0.07140174031000293 0.015552275825983827 -0.039910420955821584 0.035044561689112214 -0.03801501364591631 0.08219363419458514 -0.03886416074581839 -0.016212490898305485 0.04118772589104093 -0.06203724702496131 0.011488461586202038 0.06602067896656899 -0.08116655310029618 0.009374695193120333 0.014293602852729704 0.04110051937670136 -0.06013400484667735 -0.06428155062345728 0.03312823577720981 0.024902204816922766 0.021067565038580052 0.011718305898717996 -0.04330854945621596 -0.0021979414297397777 0.003423301244008106 -0.042300256320456524 0.09589095488076442 0.03300360471304298 -0.04580069864992335 0.051890902474470896 -0.030369640350077377 0.05586650062716506 0.06736001184593278 -0.03755849064109935 0.050274285472193946 0.020903068026197947 0.04178073022756325 0.09596620289996376 -0.012393971489158634 -0.038067083302912016 -0.04488394725448473 -0.040952820783326495 -0.002019064269875318 0.01922472417868064 0.01549983780334541 0.042938520516559095 0.004064010818076607 0.07351050291099727 -0.024139355386821843 0.11430821860387434 0.002220151314686804 -0.07540953152073866 -0.07785882126189217 0.01337257301507055 -0.021612427453657577 0.030508992351227674 0.02451573609092092 0.006273964843460862 -0.027345562207232905 -0.06412654077395422 -0.017468261195690924 0.04431228346385058 0.009809736157702165 -0.06326127202224664 0.008266281248700932 0.01963797610626014 -0.04464154190999838 0.007842768817806062 0.0029388472025951734 -0.05743899943574095 0.022247902167243993 0.033632351722361335 0.05732480438596775 0.0565585389221016 -0.06892741302793866 -0.05347880367260152 0.006008687563510262 -0.003859742693927347 -0.010463149844534215 0.16039647996411374 0.004792987257828225 0.04063589875298708 0.027461029733670005 0.018638726687641712 -0.023231303949784815 0.04019822231925375 -0.030542485612100937 -0.0065997933381706075 -0.024955624346973928 -0.0009297511780250267 0.11197479556101585 -0.09733367395391591 0.03395910175345647 -0.08137060364289876 -0.02383615875412343 0.05503878121846054 0.0034431119289684334 -0.05321177208888046 -0.02996279690268154 0.041679391242655524 -0.03151999076845761 0.017928834885421522 0.004868578978395466 -0.0329037399352645 0.09940328060895957 0.013977487654941303 -0.11892112598614868 -0.0018366140140589496 -0.041047993943058775 0.0337100728526581 -0.05077000140786231 -0.014938537704593798 0.015751497709143508 0.0452201884821816 -0.055411772301085085 -0.01766391857990324 -0.02908735483479953 -0.04549779643058172 0.07812450556675458 0.014754243190452118 -0.06483631173238415 0.04618348479559308 0.10718457366626803 0.05218634135454794 -0.0762870586049387 -0.022782912536536616 0.0709119532325284 -0.028866557496368767 0.028916131802215337 0.046773669573672905 -0.04061523727060344 -0.0010805152461641552 -0.16826561382186983 -0.06940992901240922 -0.0325364945693431 -0.06986705325487834 0.0851996720306012 -0.07543680726067326 -0.030122535312235736 -0.00561069513987908 0.06137261957917584 -0.07140616252655153 0.06667418591319987 -0.0008699390360698156 -0.057172136919551184 0.013135688101255639 -0.0013163956462799494 -0.03739263245638903 0.0020778573511460296 -0.019696071967770516 0.0057329094724062335 0.03348776027856994 0.08040351899128997 -0.06108775443810358 0.11247608843460712 -0.09506949704606106 -0.004103866590386131 0.03197405409110561 0.013777094219247304 -0.03592380609383223 -0.026239786972297174 -0.05741752833332417 -0.05358123903580496 0.0463391568929498 0.029549382171000133 -0.03513951339467665 0.035997904541935806 0.006953207530116276 0.038499348931430116 0.04088352159244865 -0.030528278629720004 -0.02910426213754861 0.03410673352413528 0.02853839464553936 -0.007424791078725676 -0.0011076027606658975 0.0629987516016035 -0.029948286950840612 0.027632497449373496 -0.010182247969867836 -0.010656123247326479 0.05564059845959446 0.04264318346892902 0.04146686553501417 0.06489376478456153 -0.001775015743006739 0.027471708208044465 -0.02340350857737712 -0.010409377994148148 -0.04410450993480064 -0.006071302873674321 0.0487815078668688 -0.0242029757407461 0.09629071025564835 -0.0672123326746746 -0.07287269568924357 0.057934554340657904 0.05159799090135742 0.04023740609983443 0.03850754941664268 0.00710061126591877 -0.03398229613678294 0.007184487141364552 -0.037456967026214635 0.04841372485359082 -0.00740884414261555 -0.04169390469303363 -0.016209721861622298 0.02089129398708888 -0.02923034224399528 -0.04380592763758346 0.011028255354893443 0.009923664277085412 -0.030615171040492765 -0.03146049172936953 0.0005803662043852643 -0.10368437070485632 -0.09653338812267218 -0.03221054285438632 0.008248133299953836 0.022414672963952435 0.05685134928753552 0.022816131367454855 -0.023065493682751237 -0.00844462948760674 -0.054670037935410205 -0.004043583837932182 -0.01229013159414504 0.027150013899186323 -0.021920970388779635 0.03881053938669639 0.07778307136782488 -0.005951349480563681 0.02029783858552447 0.034858192651210235 -0.020263175373027083 0.011354555535797962 -0.00018123559289746221 0.00037077363323266695 -0.04053332974984882 -0.0010835696096336207 0.01668019908846256 0.06688305727268165 0.03290860676222304 0.0759916264305463 -0.05753625357226895 0.05662617736041275 0.0248787564649887 0.11383892184769527 -0.05011205020403488 -0.06502122355317588 -0.05994892477301476 -0.1313107395631419 -0.04873817644112674 -0.0570314980593558 -0.001888479932924587 0.024457376588436268 0.11790395975619804 0.0646512853265333 -0.02809644028272736 -0.04601801012529709 0.0248156313827638 -0.06667890577043936 0.09254032130116381 0.059640418640241444 -0.024339133788071565 -0.09141761203513014 0.06744486483143762 -0.007600593243092432 0.05642482204581784 -0.08481196097156035 -0.04128152145161769 -0.017342558123837115 0.0034213193338154153 0.00016310635493670898 0.05957958175670888 -0.028343546434157645 -0.003489263354939393 -0.013655155911732737 -0.0035828493011586518 0.008002317025279168 -0.08931815031665988 -0.10561499399731449 0.049504142264439464 0.020825225336957194 -0.018424307428963775 0.09318651727243879 0.006893910518399931 0.058190632626965534 0.0033837801178815156 0.10408445095067435 0.08873602131635604 -0.0122669402309152 0.048615248513856874 0.02898664310662675 0.06989053559240234 -0.04596592323645362 0.03314029290218569 0.049966095151050036 -0.09065443566852725 -0.05208566480639899 -0.07642643987234043 0.02787348272452767 0.08531333149879324 0.12070033123576472 0.013080535955567123 0.07151213288018082 -0.07976429702280079 -0.09790962482737976 -0.02647424327890766 -0.004342343881959583 -0.014734346368677547 -0.10171906613445086 0.00818467812862049 -0.056256641805268966 0.03424854794284179 0.016765666317543178 -0.047576145154536446 -0.025954198705443073 -0.05342900792487882 -0.0024600762359796398 0.04884047714491447 -0.05122035798580551 0.02830081549412948 -0.023672549505231275 -0.03836822436420504 -0.004918013948370299 -0.04165344394715502 5.2481259787413554e-05 -0.01567007547253088 0.13853724938296244 0.04081524222028604 -0.005847329655914398 0.009700002258867012 -0.007094107121456051 -0.005082847565834044 0.03521646517391896 0.029178767356288052 -0.04224840906235225 -0.03624126962876638 -0.012266123287926442 -0.10978614560136726 -0.07213218542486577 0.06752280515783893 0.08098823639693782 -0.012893643687512602 0.02912052416550387 0.015746357992042433 0.1564032788914333 0.058561149836282765 -0.007255635998202671 -0.0500047162066965 -0.08408585543026915 0.009200132946256514 -0.03670144830621169 -0.06535480767685736 -0.003299428331383317 -0.015360841633782001 0.1151347145423606 0.06358759455642331 0.006230732425929909 0.06707081511485208 0.012957050928972971 -0.023917725013307873 0.09324553091959557 0.03409767874605145 -0.05476469133311044 -0.008074508655406912 -0.03884784651381899 -0.06714087265706274 0.04574985231512804 0.09357726505255563 -0.07232950755360351 0.0283027131954148 -0.03287689961442122 -0.024598023106053024 -0.029126537060646177 -0.040507922708856385 0.0026167599335416847 -0.04667750258044166 0.004114648495813118 -0.009427961399516537 -0.015236095721376158 -0.041526085782841775 -0.00802352378782002 0.06962680378426984 0.05590312831371614 -0.035583580053559175 0.003913835387302657 0.04460272900515147 -0.0527631549233384 0.06380971416724283 0.0021345888746595212 0.04359298208950584 -0.03504344167889028 -0.08221761252896362 -0.07735722954131 0.002379226271945726 0.008580593375393498 -0.04752630710105818 0.03125313990716672 -0.08415168632573264 -0.0033374278808774296 -0.0611659068428966 -0.03218002036186407 0.005910914005257823 -0.04132627993349985 -0.02249032764886278 0.04533224406457533 -0.0338761563467763 0.03800399438561872 -0.05208780461628316 0.0452578715845864 0.10351349383238392 -0.09390280223671028 -0.026059200789872235 0.03875098615100533 0.01304351259005949 0.055631264355455144 0.008358552361098328 0.04028130218716942 0.011222333040979434 0.06966651260305487 0.020875628997122694 0.018902047358935924 -0.02329145043548418 -0.029385553803040754 -0.02432656908364839 0.018858769010048553 -0.021443676347846594 0.014635840452058211 0.10481458039008666 0.04464455826307343 -0.012547409845174724 0.06409807683723986 -0.022129159168396938 -0.10482967024790119 -0.04953407235882108 -0.0942094381097793 -0.011827714184289222 0.015336650546776654 0.10886557834255145 0.04400900452232503 0.010431505026259913 0.07298168689411849 -0.07690161909522311 0.04791274268746896 0.0732463969720808 -0.037350927500226026 0.0825015071609794 0.030365208887577985 -0.019079668781739206 0.02734892540884195 0.11046222563132221 0.005220529024326536 0.011098460040806661 -0.023540218324583206 -0.04292340439385027 0.041938492374385815 -0.04321990056719204 0.0043031872077269615 -0.020545029331145923 0.02823241603454987 0.019044992212993328 0.05258167157997976 -0.02689326897527478 -0.017301723985271605 -0.052872312382370903 -0.019911333826800277 0.02925784271846815 0.060163277165758665 -0.014813814571166255 0.08242692744158198 0.1022425328330282 0.05006577033240144 0.1277130892136766 -0.004544728342268853 -0.040898833641779264 -0.08409688834352506 0.07109431116479858 0.028097466513573807 -0.007048787098002909 0.01146420641321375 -0.05735983151924653 0.12340770422257422 0.006526580806460834 0.005525465720211872 0.03665790223094072 0.024904469950506533 0.01391377869480211 -0.03641107279497711 0.02771738546444223 0.09573392645238729 0.062197527955648174 0.06969016948196449 -0.03560140558134508 -0.058926488071623324 -0.010460967901015049 0.009133679584273942 0.0703876440706457 -0.06822402886940845 0.09426556545083639 0.006697927824054828 -0.0032745440287935026 -0.03478133443506391 -0.07484089561765635 0.042566713715314126 1.1293643486761467e-05 -0.07042849816485948 -0.06954357855408191 -0.018608527580018595 0.08421373275838115 -0.013127191600923883 -0.0759203214523404 -0.012411899074623681 -0.013774620396998583 -0.13589291545932947 -0.0015261093675858256 -0.009639607555174326 0.03668687462889386 0.09337006278816853 0.05198278610977396 -0.022899935323649305 -0.06508073267538085 0.11722053035266597 -0.0050698863930439915 0.0047828943534675835 0.008898206919114032 0.01630103491867783 -0.002321663786997079 -0.025197421462220447 -0.023719224090950553 0.004048672517115426 -0.02444017326198862 -0.03613922435025214 0.0014937284229197718 -0.017100029174682917 0.07356888565164253 -0.1348922510184332 0.05510900092397238 0.06296457208463174 -0.10472202095583959 -0.01730833725733697 -0.018760596796816274 -0.07104144189403996 -0.03888293796121512 -0.05647167929641722 0.08589080915388202 0.04451813507388862 0.05983631514429948 0.03240367118214495 -0.06266061936571049 -0.03537443526618426 0.02011098967957339 -0.05667403130885638 0.040274884572001436 -0.012270764479874737 -0.02560501508203372 0.0314884123318737 0.016614459765611593 -0.02223227931822548 0.05542480274239319 -0.05788006698675005 0.027196731152102666 0.026686407220239194 -0.017415225203770864 0.0161784912405647 -0.0630881976877785 0.04667330062094157 -0.00933896818105127 -0.02640149946366626 0.052982966936893916 -0.035571954996282705 -0.07129697382440855 -0.07996365607563229 0.027526179529858027 -0.06800259588963992 0.0847457085041518 -0.10892930241121096 0.07969597288428067 0.0026743894598361133 -0.008831017860022203 -0.026257985937180216 0.018627521136758682 -0.008637298363694604 0.04384618333688284 -0.005512709293930898 -0.0018585722927362052 -0.026079686719862893 -0.00829430260519859 0.011652977991016203 -0.08926468093317287 -0.06992833997571948 0.036759491866176566 0.00847891246108086 -0.009317271219661482 0.0009310542196056017 0.01755552720554444 -0.027261980725559465 -0.039310324940107784 0.00989167913876999 -0.04944036010453283 0.020234468638123403 -0.08663088617821886 0.05093095182296547 0.022938783056809325 0.011352292398763725 0.04553312907478805 0.07838822811944812 0.04717113907398499 -0.09617480105493112 -0.06929065554408542 -0.03843135049282247 -0.005827425467055601 0.02039594092845003 -0.04071725081632635 0.006917328257650742 -0.03957122906184744 -0.03144716988347384 -0.07119005305275566 -0.046783429891193586 -0.06827681137148676 -0.04928904248277479 0.0532169470944986 -0.04795188516743143 0.13295537205145463 0.024916316642399277 0.009335634033777202 -0.043353614789311996 0.03537099033300222 -0.029077314592539975 0.00615435742946461 0.12929581021600892 -0.004861735568644838 0.05802977763337929 -0.03559011287736396 -0.0020364420275543393 0.08931944071601704 -0.03177221307217003 0.09141030638364685 0.03558337224710751 -0.028455713903424808 0.03192317403698132 0.0490422034913072 0.03121463593998808 -0.07932456361551282 -0.03672622596998546 -0.012501578976322189 -0.003759455890257916 0.03134867493366877 0.008975255913110056 -0.06744507509022243 0.0192028913313478 0.030839237213288097
0.028273687269678084 0.054587670001099285 0.04211942931880187 0.023192096272014552 -0.003543903598513425 -0.0838911956696497 0.021698996862138543 0.01048981228299901 0.013716802671971853 -0.06448554113091483 -0.0546016007549108 0.05319225172983268 -0.0018947290558116404 0.0346411182096979 0.0014240224894341371 0.0015026506890474145 0.04739048870593934 -0.026064194765576712 0.00485483237056349 -0.023348427958450324 -0.02194537348695448 -0.015615550361322816 0.011219449732338736 -0.024180456918711263 0.06342526227925586 -0.04518449213560102 -0.009438443342712604 -0.02220977237171471 0.07308341958953489 0.00992751538185291 0.05211601935632727 -0.07503212954546143 0.01349069297990249 0.04494300746580328 0.004531549923286402 0.0547113004498281 -0.02491685095882779 0.0722852581979566 0.11809752055261166 -0.015237309840279276 -0.01807226988922858 0.07607056510569138 0.08100707066679422 -0.02420845137898087 -0.018963135842758834 -0.012508234203354719 -0.06678304437765456 -0.04544458739713329 -0.049927526427119506 -0.0382284520737566 -0.0013591464376355228 0.011894363059091329 0.07831210090727982 -0.050424493730813556 0.049715788774042806 -0.010808068775009226 -0.0024982946084198443 0.034083531356276266 -0.056703567016592925 0.019329950859175663 0.008460216729558637 0.024905739090207806 0.015185634102758019 0.12633016027604785 -0.02829773382053767 -0.02172124528929113 -0.02198628066118432 -0.01654871557309454 -0.01849847482279758 0.07255945773528538 0.08473642821571298 -0.015400655728504955 -0.02850160444062199 0.03492863334059349 -0.018072594918758636 0.04035566624243949 0.01645132534395959 -0.07177692314641615 0.08136609506560458 0.09214912726356642 -0.03085963039797859 -0.019780579190745613 0.014438382592008733 0.01689261887240788 0.033261508637037224 0.10153066149526156 -0.008935038830544577 -0.04025026671442247 -0.0695940371200223 -0.037337326221308274 -0.001380072123937531 0.09177430567785345 -0.02229849546814251 0.01730019398583646 0.009438682557475537 0.07084591265533141 0.13610807088270208 -0.015512819608537422 -0.010954198111697988 0.06987232319267532 0.049770773645255645 0.10610310222101904 0.04106292598602513 -0.0071999659687843704 0.03972539344144993 0.06558294074364358 0.04867922014310544 0.03096183295508416 0.056610538865629896 0.05890118165237373 0.06997480696064837 0.032764797181242804 -0.008440737703637556 0.007409176797064705 0.06092376838957642 -0.04130294080322333 0.018251121961468622 -0.022168636274979316 -0.002515147027306483 0.05967109185161296 0.007060532445440731 0.002928272520141623 -0.06502137603073072 0.03564298575414234 0.028508305078616653 0.10967894106280386 -0.004788804067192929 0.025758249033357185 0.02424346459609199 0.08946779249532301 0.002604622462314186 0.025032055690457203 0.04698361017062668 0.025011430235313433 -0.01085293680450625 0.015206111522839037 0.0540220575537854 -0.05171389032524947 0.006914723491443572 -0.03520004310405766 0.060358969653348554 -0.07693255638479679 -0.02824577269002024 0.018347768830469048 0.07684354858516 -0.010911568806470618 -0.03880134593949414 0.0809991084508371 -0.08215158256551786 -0.11519949402144078 0.02041874518587485 -0.03811436964712373 -0.060642258519045845 0.036592552773787916 0.03118816416143648 -0.010404550066136869 -0.0467019697045847 0.06973439992455709 0.057592648225447914 0.015748377601584814 0.11325455510062361 -0.03235464882691574 -0.06322807908597952 -0.031445877696470316 -0.0025745616197552445 0.011962942043754778 -0.012054429386581939 0.01787868196026184 -0.06321228669766928 0.07292141553452025 -0.004024754395996566 0.05547768831305507 0.012945028325170705 0.014351546836939644 0.01636651003438638 0.011574299444161197 0.028543611351863153 0.06406781196624954 0.004456940514447355 0.024785764105933618 -0.015242457570983213 0.06187376293156561 -0.04407263550342557 0.08214367532498004 -0.006681478097622973 -0.0644744721056798 0.005357670211905914 -0.036995738821848714 0.04397038766874543 -0.01738271833767221 -0.006088451757455337 -0.08942689072532393 -0.02553257533767101 -0.12568787197147785 -0.08208377549284834 0.03829893991392589 0.03969097218115581 0.021537494202521844 -0.04857063575177933 -0.0029734174620092255 -0.003445018792820053 -0.0630602836091041 0.07188686133889605 0.047704054280993315 -0.004996501617198985 0.011835713402485555 0.013906523168631163 -0.10549751564237217 -0.01715814851905713 -0.046516959473077615 -0.07535666511682461 -0.0418731211395555 0.06494987819913098 0.0272659816163203 -0.027620148685249674 0.014680999407924514 0.05021456393836249 0.03971269318308533 0.011824503608951778 -0.02154333711009786 0.03569118066561073 0.012578227855114373 0.04207890250207725 0.032064389237596885 0.05313206319343106 -0.02648424090274445 0.06805794687125456 0.012434048077447824 0.10558827654568592 -0.03458330378481175 0.09140616191972774 0.02375014496306854 -0.01732141499448375 -0.0037433247412494617 -0.0020687480732626802 0.03432987280184122 0.045925216735776604 -0.021034626233308082 -0.004812348869894548 0.10234909743642646 0.09211357969862226 0.029375097573607872 0.0003799010460996307 -0.008651762123843958 0.004868968607558188 -0.07408578570676849 -0.008395287671459738 -0.06913262042160657 0.019682954368209167 0.024241682585280498 -0.027345420106245764 0.07928756209135335 -0.06185341758522586 -0.07310400925354311 0.013884609383156575 0.057807213751248934 0.09159313801105881 -0.019894391696562937 0.05805846967942905 0.010579969109314222 0.009422778010845886 0.06766621793638179 0.0474757188662034 -0.07110897354368022 0.08952803463061423 0.08895804478722716 -0.014043091373708506 0.02150424663702204 0.037140145571832275 0.019042470660816754 -0.032901288655336966 -0.038077418576056205 -0.01668179168702345 0.048468355765574615 0.036430284093935596 0.0058184459951064246 0.046402956919120615 -0.15126838318532607 0.05559628522975221 -0.08797772768776478 -0.018225583371114736 -0.05550894247977458 -0.061460871780254875 0.06404065633839177 -0.01618723496332034 0.02234817778342058 0.0025483528045814794 0.03958871776233727 0.022089306301990626 -0.04024208726311255 0.056580885920470135 -0.020527396505136263 -0.059378679590817295 0.0197783541790712 0.10367312515661785 0.047085378334497274 -0.018758056964968194 -0.022151959038132416 -0.01299088276372003 0.1067541967884917 0.025594322217010877 0.03117305664836948 0.08061993301636007 0.05114175128803122 0.0009034912771825937 -0.017439638194852527 -0.006372072017720619 -0.0020486688060876606 0.03680481515866038 0.004094542286354194 0.041915059204437194 0.0014198215633741721 0.005952379980101845 -0.09986170676363444 0.055489143354346314 0.040053560939931086 0.07256748666062307 -0.1250010026022567 0.10374729251633394 -0.0031058589027680534 0.08118993788454418 -0.010068717608578661 0.04055308404360068 -0.0847469452091255 -0.07157761395280335 0.06568061096517071 -0.02231499387332974 0.005579758523810746 0.049443124794028855 0.05212739319579822 0.054601418742227764 0.07087040281128408 0.1451427997989239 -0.006361270980857076 0.008062596476575484 0.05295800098634093 0.055886318449823426 0.06112057371296964 0.0361957079789097 -0.053197696380545494 0.07781847754728037 -0.05596944436607467 0.028762071268067655 -0.017115942337598316 0.019056370229792122 0.03466833139269275 0.010779924701053779 0.027272200283898068 0.0963791731610882 0.02323125781162661 -0.052923763865178795 -0.004709825140608793 0.011093909684785998 -0.09987387930117282 -0.001747729809887278 0.00532045980555726 -0.018740753442586324 0.09930925868932262 0.04975182863968627 0.07014876898403796 0.026677101943747426 0.0014279049904782617 -0.05703355894822448 -0.07271344761524573 0.08053460043117476 -0.0421960021489107 -0.04769836150702356 -0.10808123021810209 -0.04392214139666085 -0.06552526100248054 0.09850878574501312 0.06506728641356994 -0.017249122707237045 0.1290996017214694 0.055804650766316306 -0.008354215923372937 -0.12783062816671847 0.07866620046889215 -0.12326885537179391 -0.1174994006968135 0.01170273606777778 0.07526183097709066 0.025353373774354992 -0.009613240193937271 0.015247014480420951 0.07109503331802268 0.10043193765270275 0.08594787688426327 0.04761100293450164 -0.000868449222073429 -0.04006083565842203 -0.014491333703761478 -0.08548244587227807 -0.004744408600910545 -0.04883447766385608 -0.05884489571509063 -0.007967249118839616 0.07530475109585158 0.059910421685759746 -0.06690157020006203 -0.03407200708157616 0.06424169586342106 -0.02966610106653499 0.007863282511736465 0.018145144703443142 -0.08004825109377328 -0.01974936719972112 -0.08499063006865015 -0.06810130950061051 -0.023261934846830607 -0.11378835929035688 -0.0029674596409494515 -0.004442873634007836 0.0650327183268939 0.07579283483902463 0.13842597915274596 0.04593557802107833 -0.019161563927685706 0.0033327029834317153 0.02738929591796853 0.0024770690988495853 0.001992571559461785 -0.03516339700945933 -0.03900163038177293 -0.08733324586575948 0.09217007917584857 -0.04681500067802588 -0.014299037867730461 -0.018012657258715554 0.07133002697339227 0.02239102250745232 0.08426040347832746 -0.03520713377780698 0.005308651802987241 -0.045375140964669346 0.08993201783928909 -0.09824700982672997 -0.007636908299410437 0.023227748925166502 0.01365944642801064 0.005920757040783898 0.03735955917987229 0.061416155749222386 0.049458326085033595 0.07778602181285213 0.11077559867061557 -0.03266153534855674 -0.06956946411780916 -0.004452361520087276 0.13025574959421266 -0.040927696869534125 0.07627530742954682 0.06972452593287796 -0.023959035230707054 0.051293326734887144 0.11346348504481273 0.015421210766349955 0.03951462635093615 0.02790992790569507 -0.010922985887672636 -0.029888837957107492 -0.07498942370805886 -0.01564969790219032 -0.06896614535692326 -0.026435488186173303 -0.09659487453152593 0.010971189362360127 0.04612774968230804 -0.08464814958170407 0.05098450970567768 0.10137246286806738 -0.02359962786424703 0.09978084408599248 0.014312447933097177 -0.04017759472509022 -0.0035216912516665725 0.02819976756878987 0.003822374175929204 0.02663402695483346 -0.053997780252638676 -0.007472217396142846 -0.07295714992026836 0.010621324991835141 -0.016677713398276034 0.003944673384676592 0.12129408871634034 0.11916255259248214 0.07369222287818596 -0.05022727255462035 -0.03696945739318973 0.02838370671452667 -0.03942140831549207 0.08296302834588433 0.014931118032983375 0.014152203040207825 -0.008112268550390319 0.02103547920990105 0.013842121012164293 0.06632696424319659 0.07188176610512939 -0.033235744750399136 -0.07430617571722768 -0.09558263523811389 0.02564130475134166 -0.05569429560901537 -0.10874444419365528 0.019043152292904375 0.11579442854245323 -0.020459894392171652 0.032282194487142896 0.011474723606934844 0.01887798798042598 0.08889152897686199 0.04565283721678973 0.07824327181527113 0.0684763211440707 -0.005759071680217865 0.04402821639743882 -0.03609992988907913 -0.06217822808153117 0.01865780547377229 -0.0216262529701542 0.026492080923057826 0.0036473320512456038 0.05576857283242428 0.036846938134529474 0.018817463606509894 0.05262048217578627 0.06707260534267574 0.02256510072801254 -0.0011553296790887222 -0.06679479150334568 -0.05379647011360072 -0.015158252271163367 -0.03153865833190764 -0.021287019572464507 -0.018071926411613894 0.014221136758410077 0.0027423858903600404 0.046630581129700546 0.04262143224359466 -0.03661770199360175 0.03200595348094377 0.07412416689095984 0.011121813989303588 0.060008111053957404 0.09166043883253983 0.07868150732677236 0.014124321212796227 0.1134427522738783 0.028608172278490714 -0.020397224638098278 -0.0375211130338718 -0.012563799905308981 -0.009980599019604453 0.00873997391888626 0.0007053159520097069 -0.006185928658186201 0.019985545980504796 0.05987120845389237 0.047959726305306385 -0.0748214016048879 -0.1301063145821189 0.03610354457486384 -0.08843536203464149 -0.025022155183206666 -0.06019139769751459 -0.0704206190231269 0.062344169239516765 0.0935241809534327 0.05602388126466183 -0.04044831318621666 0.06211848026008013 0.08391531851785419 -0.016933903508772895 0.05864719991510964 0.0316819760054673 0.056153614426743735 0.01562630438512684 -0.05835041320168059 0.043835384190722436 -0.017017896983320607 -0.008854066142048757 -0.05566413399672664 -0.03170157865351094 -0.04871154270347388 -0.009499747272390516 0.0864536276845314 -0.06929166243520525 -0.08152541026157932 0.0729836142375896 -0.018129838749618744 -0.049333366412194324 0.039007324500942936 -0.034875666557133124 0.10598021324913323 0.06006649529431334 0.011755399596192907 0.16083706337628412 0.03322245156835558 0.09611893027760696 0.0743640367692515 0.12242842590517318 0.12106566849389436 0.029721909985527418 -0.018028981721270237 0.025343194458746332 -0.05306067394453636 0.07318091671718577 -0.017429013814942454 -0.034128444476690493 -0.0025333105476231235 -0.07559211852921022 -0.05116462998896753 0.060698993359561845 -0.03317652063839733 -0.05287717460258543 0.027103059685023956 0.05911708848776092 0.03186019596138236 0.03805093843420344 -0.04675466676130074 -0.07247139781180124 0.08392670639651881 -0.003154815601133765 0.002896803072891663 0.08743756947517069 0.05056514812026731 0.05354013299445155 0.14927511779391237 0.0052769461685732415 0.08267889636274138 0.025052276311835448 0.022724125114479896 0.06701976344814749 -0.0013498775522963258 -0.011388377706505014 0.02408387648660733 -0.03825514599352535 -0.05409688990004989 -0.05814991457589325 -0.100579180094548 0.10386933774372659 -0.05571738938529215 -0.01117499554282823 -0.01398118296243437 0.015295232565964729 0.039195200286253826 0.03784394135085572 -0.03554271930282015 -0.009564292646994552 0.01802481248503315 -0.011127799635735923 0.08475056531334793 0.026480966747698106 0.04648466987602909 0.061142791082185115 0.09604587175590452 0.03845917214087023 -0.04074940646930798 0.037248638992476345 -0.026392035366198663 -0.039346840188118 0.0005042849533417778 0.02683465525650863 -0.028724574063939756 -0.002695834430497327 0.07684169005270797 0.00828960439829412 0.13057182034471226 0.028477864520150904 -0.08893194907570103 0.038049497773791546 0.01925140561833744 0.06510394549852078 0.033839783108357537 -0.008008395017986659 -0.06374373014081186 -0.012840379473250087 -0.048671888365660484 -0.03577208558178399 0.020100468338073732 0.0686754249210812 0.0073920935502710585 -0.06113260158567012 0.023655220243744307 0.06093306269989709 -0.024874843871275875 0.002899064477135332 0.0016670528508267812 -0.04933196692319884 0.010409352316258473 -0.0352996945007598 -0.0038671279894193973 -0.059863605540731925 -0.029524617835230527 0.03481831833752575 -0.01921929012833702 0.08723819435646245 -0.020184675489686506 0.011348292372014158 0.04710295009213323 -0.0716716596756256 -0.08858383154924492 -0.07671210664892619 0.06276292133241365 -0.02949461332755598 0.12567854128294884 -0.036397845872830084 -0.004536960279305923 0.05618030212775311 0.08153119618112131 0.08358342270103665 0.04207797614302976 0.03423767598194766 0.023062867479811577 0.04082527050958132 -0.026522312963369633 -0.04751201368837395 -0.01433790401295773 -0.02762665243916641 -0.036400745295259974 0.0290846265442573 0.04547202764102969 0.004149983059837043 0.07461255099185927 -0.057643202952717805 -0.009781279778400624 -0.0362049945574372 -0.09427433566181134 -0.00417600525946623 -0.006180393622419047 0.07580758208864151 0.030493575612083785 -0.053848364436749854 0.0924174526544855 0.06129979711680073 0.02798332240660339 -0.012451373334567152 -0.04912421301492177 -0.024310441470574828 0.04797777870559069 0.08632465253716687 0.07730556660391456 -0.02076129305018731 -0.051495835672578184 0.009544108698858453 -0.09067739196727023 0.010514679381675383 -0.011182858283554462 -0.024370329275982972 -0.08083158650370469 0.025927892529664737 -0.026903791277345487 -0.0590897234253609 -0.14507114916838112 -0.0013897125675006344 0.08951222299813301 0.08390626113681689 -0.023086847334795636 -0.030408946588302618 0.02372097632833843 -0.05036205100451056 0.015360520012407366 0.03899193560547621 0.062327732942971226 -0.0044893954872033525 -0.009934963430519507 -0.04396948996083282 -0.040123172935639426 -0.010253696727615858 0.020203291082296643 0.0486437700757023 -0.03777922615295555 0.07722566100725262 -0.013180416798060002 -0.0015042477277934655 -0.03782111249655847 -0.12248953623821589 0.044672191038596 0.037216236879284444 -0.014209187383781033 0.0033835421733040987 0.02605886567990365
-0.07892048366567278 -0.02672119541117597 0.040116424358396754 -0.06335118262096709 0.014826914607580292 -0.06851772809167812 0.02355827168053348 -0.00180016670172078 -0.08157647568120915 0.058828221132250544 -0.037102477525458505 -0.04092392804898534 0.010130259311542256 0.05801462445701523 -0.051307072370275084 0.003115289421590828 0.021658503947745107 0.03500711964101351 0.008911644301401928 -0.01853770527857587 -0.04179961836174148 0.004350923132845175 -0.0541511975535477 -0.14755048122154543 0.022049599850954147 0.04565560399163092 -0.11934611061837704 -0.05099910203376201 0.03127201261123721 0.10391921420669592 0.0010502408359494059 -0.036769701176205184 -0.009237665268579892 0.06944170142022099 -0.03267113087090977 -0.04045936728237505 -0.024480202577743613 -0.04817294198585628 0.006166610919110262 0.0820354387342596 0.01630738185096106 -0.012747184799013347 -0.014741111276407873 -0.07896994899169686 0.04456261552904511 -0.003950645800081001 -0.009119547798417529 0.16127410001445502 0.015088933781432225 -0.037971182111261444 -0.021534310534809677 0.0580052677712585 0.005721019671359816 -0.07264400797853486 0.04642807236435797 -0.03374637240673623 0.09461582576750757 0.054550665091017275 -0.0225931675566803 0.06470109687098698 0.003427220831057288 0.0430709478294473 0.024430031143245663 -0.04297973048252512 -0.03274328025578284 0.051887231643703 -0.0170971364759108 -0.020741401135904284 -0.04878142033750436 0.020570043763835737 0.10314479549863687 -0.05479591814120383 0.0005956931536818001 0.07083921166763835 -0.004075494510300332 0.02303111840697082 -0.05338935878569694 0.021938366936125584 -0.009229366241111155 0.04974808598689331 0.05991568114876812 0.13077780653873988 0.029275896241428286 0.016455198910060653 0.009817889842967513 -0.017837591466639397 0.017096005482246237 -0.01492002430581259 0.00850993548124129 0.06655029390571444 -0.05089509723461723 0.057247234881055514 0.06600033761960836 -0.006880283772865916 -0.10802987049499013 -0.03175409820005765 0.06444712711388202 -0.002136208022011787 -0.05150281977241203 -0.026006761903331 0.04289374500790431 0.02895445246181909 -0.010555934430428082 -0.017829328774916643 -0.01941337228944878 -0.046580678072277566 0.0817242067991342 -0.016161681257200133 0.06137300033174304 0.07675436105187743 0.05041040618116915 -0.021800117858627874 0.020391448903290997 -0.001221233843959787 -0.04564352025995156 0.01640239334002838 -0.059400389836018 0.0599228695616022 -0.023642880475708516 0.010359435489503483 0.01435881542309238 -0.011178979267791074 0.033856805755160174 -0.01873209185772161 0.050426378642725915 -0.062096346206415125 0.011550958216823575 0.10340729545041136 -0.04570598558972553 -0.0303970833077076 0.02977826401596476 0.012172550858190785 0.01715395134914337 0.021919474879783067 0.028993970702979505 0.05448567022160709 0.02130798285621751 -0.01198542277274617 0.03405525576018446 0.09596601175673271 -0.006699015820092462 -0.04922116284268725 0.05591420418371629 -0.006050194769486984 -0.10925044718594254 0.043913587820632684 -0.02404434630689191 -0.0006504014717977674 0.021090420696061134 0.01590694415948906 0.04456890364324202 -0.01414460317710893 0.027865535030138736 -0.018175503431134093 0.03405462500175175 0.03361220711762542 -0.03803805450892193 0.06355450730455897 -0.018816697143292527 0.04929146711474639 0.025000371201856268 0.09591841756615765 -0.010068353777492519 -0.017409518325196598 0.0008129275128276373 -0.014195896480007799 0.040704826096310834 -0.08163669724580862 -0.05321899884253093 -0.05393219191567533 0.04786101883491483 0.08591812361973744 -0.004553011003718185 -0.005138895734153119 0.009313936639807533 0.06596244567514649 -0.03870676831540656 0.02170388418487009 0.05459857869765875 0.024943540683622752 0.003934973708282248 0.04354617111218619 -0.13639229501947378 0.045263521937938804 -0.012607835791515906 -0.07255758958250509 0.04365496415351126 0.083550183546854 -0.001019238685988587 0.053905321712145744 0.08515217332833136 0.06985841237896068 0.08663735608680286 0.03885376360977992 0.004226324243242844 -0.08090834488940708 -0.012428032425165785 -0.042593482712334416 0.10933677381480969 -0.009666330486495003 0.007164779188633899 0.03184177355389821 0.006856909958256117 0.09341822946866515 -0.02147908435008082 0.01816048956616285 -0.029923383786555506 -0.06706339726619533 -0.037108952734730305 -0.0056031218921401066 -0.017328413312508298 -0.020645666814653175 -0.048416192691394015 0.01725064479626204 -0.06054501626798041 0.044600332756635885 0.0026657009078114927 -0.07469810172060769 -0.016704474547358503 -0.036103533849700734 0.018772421418350272 0.06871149434820108 -0.09451937471302073 0.00581011328372921 -0.008087927545395038 0.03388235504703797 0.010185423708341053 -0.039330961670409725 -0.016884573215069098 -0.037780014626508464 0.0579993502700907 0.004677630188485003 0.10012459898275602 0.00689411639136093 -0.025659754717106784 -0.07412453077764508 -0.09147191695859315 -0.08123766201147971 0.01224639028546936 0.02936809849778696 -0.06931669366630368 0.05339437866976265 -0.020420273773165798 0.008627942807138305 0.0749629926204867 0.03521404953925167 -0.020797593290890554 -0.046863490000424876 -0.10768762483935801 -0.03606532483781457 -0.010602264724431057 -0.04986009556408083 -0.006632116851286511 0.0038204755705683515 -0.012172845125468193 -0.03535704266463777 0.006824323096829086 0.023696841174514597 -0.054693674643584225 0.06918376332610453 -0.000764054244138429 0.009682041657840899 0.04181203096613302 0.006475734147675447 0.03574830188918173 -0.001575026116504736 -0.046191126658057455 0.0054843831249368705 -0.06369842497746515 0.0023563342040211037 -0.0044482106804003795 -0.015382494465033517 -0.01960471573171462 -0.10931816695342776 -0.03751033750299829 0.0020591199685027098 0.008594408047198392 -0.051422690325460894 0.06397265296295072 -0.04374718291609514 0.048958642715913915 0.021406750194769553 -0.03343114509444229 0.0874303307920191 -0.06025114227978101 0.046092651730127075 0.047918649562809085 -0.03630121184300745 0.07574418941032739 -0.0034970274183110913 0.015213797397470195 0.0028909828656406692 -0.023224265093810943 0.021483995771121166 0.02221576874115942 -0.10165913529189591 0.053821618569600105 -0.09099088997620003 0.04535410812360651 0.04552244982195186 -0.07217992716769649 -0.0364633916862844 -0.06412039191994302 -0.013150911278617932 -0.01525227161416781 0.039759188628428976 0.06627136012124803 0.07049553659335726 -0.02839565804447226 -0.010664048852599372 -0.08569176700794752 -0.04177113823783417 0.04915409648398581 0.08238532787160706 -0.06223188685635919 -0.029379243057056297 0.006269492489869519 0.025492848346421904 -0.041065711390929405 0.015375140353989887 -0.03275839761183127 -0.009215843512575844 0.01943134118247313 -0.008909456011885832 -0.033431384346475225 -0.013989063988307368 -0.015826651101517382 -0.03721370211829148 -0.03739324136962112 0.06307704821271738 0.02050485262439578 -0.017128144533681076 0.03548767941446697 -0.016635621280103992 0.05949486661787953 0.018660805001153007 -0.005419576690088977 0.02252427987853971 -0.07970700157096564 -0.05763758735876192 -0.061383257083814154 0.00810950561763608 0.09129253818865564 0.11820589864004186 0.041343771464596155 0.037671702652799274 -0.08452688192121716 -0.02329761074905839 -0.03568774512946445 -0.027144191553271947 -0.008791441497949307 -0.024318662546517704 -0.10061295622236709 0.0311576723683155 -0.06465724542846885 -0.008479501750407072 0.0798448401670629 -0.06058303723255235 -0.13373960213303965 -0.01705183401180974 0.05474411914807119 0.09856256936102456 -0.06244198101285223 0.02499256442934505 -0.023501727096156118 -0.005485074149029005 0.13321005203244116 -0.0765411289886079 0.01001905030247496 0.02508773776426119 0.0604960181611446 0.016704679624607928 0.03236289172847195 -0.0027460549284609613 0.026907372221314098 -0.0030234059834674167 0.047885744118976246 -0.005616811511893911 0.025600247524216604 0.01200740259407156 0.06935491613987685 0.0008907862448283626 -0.09556060581086198 0.04167068359343817 -0.06818568244150248 -0.043824567549454935 -0.03385020514877164 0.06680044683188421 -0.11033086678948892 0.1573354447800659 0.052676214751340454 0.010941182284339771 -0.002772565720159616 0.014394039121722973 0.02598298413774463 0.031620715657989754 0.026372725777199672 0.005936474362461537 -0.005322733948607778 0.0027758746885820735 0.006011741411018025 0.07913365526557596 0.05184876471164864 -0.12745320975250538 0.052849998402974496 0.023995028826423882 0.013581868870163612 0.004063129177330974 0.08244059759402468 0.06673643230977203 -0.038983823581313755 0.0031874952614749526 -0.06626563271231396 -0.07772540086918495 -0.03613178110767098 0.039831942924161826 0.04643712907270767 0.024594963415929066 0.03630450236853562 0.026047873830485933 -0.03240012653379831 0.021958965066809045 0.04046632326721641 0.03627270455237407 0.057919177715612766 0.03345821309157445 0.01966853734961641 0.06241598475522043 0.012591726320583923 -0.0233293044680129 0.014659339231329182 -0.019433115723038574 -0.01913546773858816 0.009048076699835176 -0.019501359363321646 0.009463069175957878 -0.06799350473197385 0.028365334672160025 0.004739646542580381 -0.049596687088587374 0.025915166937311693 0.04234561112600381 -0.08271097327716882 -0.039250459378599965 -0.03967792473136605 -0.04810601559499949 0.041771984481934886 -0.009790963551439618 -0.013362378423462275 -0.10114244555676676 0.032260174751625716 -0.06474233085246225 -0.002496152626658256 0.007525824987666986 0.0665132700304583 -0.0623368243903982 -0.1410060167095647 0.026785035810010856 0.10958365456977741 0.0786007293849845 0.026682754596069072 -0.00733927605908254 0.06129431310106015 -0.030114519522901166 0.03556652289348615 0.028268629785482155 0.055114416035405935 0.14142447658351393 0.024486783474753648 -0.021409013379380497 0.002212198440897199 -0.08740119767951403 -0.035400244805232 -0.021613210632087192 -0.027028956822495377 0.0076944165444649635 -0.04153847936931685 0.056644074263460645 0.00019608562211660026 -0.002224295096776215 -0.021937869145953446 0.0013833043238233168 0.038325706708904825 -0.0435930337014236 -0.02895177571905624 -0.007218606281732612 -0.06122134379520143 -0.0367070916925806 -0.016435083010813496 0.057529528876301105 0.02984174153009366 0.015999292677562418 0.040729366618307936 -0.0164397591808934 0.015405103149681697 0.003900475010930439 0.030448684263918235 -0.01255462497917819 -0.11364917962545572 -0.0024519376087907083 0.07254398845299001 0.04540413324510607 0.048330974858463174 0.06243303539496853 0.0044778845551782555 0.009966024759734675 -0.031124654866094986 -0.01714128678120548 0.02708528021946961 0.05656012044912141 -0.01049343403329252 -0.02708638696766228 -0.0010047426684041561 0.03073970009391637 -0.07173692452900117 -0.11519967617531186 -0.0196106721003052 -0.04798854104178377 -0.017378356306938115 -0.010545103800669385 -0.03645840673380204 0.0557741876651296 0.006443508919453744 0.023751332405084688 0.052043922897120405 -0.03834143433422627 0.06398621773610409 0.002638878515399354 0.03636081326380122 -0.05466043334653878 -0.07853257831505836 0.04130750464760385 0.01901155202905491 -0.04556067871445658 -0.04389170346579779 0.05664439410290883 -0.06220885405818344 0.08164251327002343 -0.049696192355619534 0.022075063478423678 -0.026761023370207398 0.025502028765491767 -0.0273114543875424 -0.0013115662059802159 0.014538360981325237 -0.0400351751078379 0.03915876529429681 -0.03194102136177861 -0.028788921635939352 -0.06604158417368965 -0.13502611904821485 -0.0006632009706960117 0.143291573046099 0.06131273936117922 0.012346818453542158 -0.005212700187990499 0.0035901851697386243 0.027259311313346742 -0.05976380253895659 0.05628006932942286 0.03613221280590402 0.03627853707274172 0.022262991469874118 0.0012185335108676509 0.032683366134379964 0.02749070589092951 -0.025687189016877877 -0.043299548358256335 -0.008031984428563064 0.07226233669979794 -0.061483689965861656 -0.06189812781414739 0.02246203822616276 0.01116072307582186 0.010089895457902275 0.00998568290843225 -0.019978637380453624 0.0683259088858782 -0.07629729106160943 -0.028890115148520575 0.015326485139423224 -0.062472065995280913 0.005190888410467847 0.09019729637052146 0.0011021268034811834 0.011360762554953207 -0.06379307953067508 -0.03113095223474308 -0.018950278914550197 -0.016040486759770878 0.06493472080117482 0.028293829196864437 -0.05688697815808964 0.007659549363098307 0.014047105936926218 0.04401410414718163 0.06980785776098304 -0.05722419845238626 -0.04298172016879553 -0.06087136080016248 -0.008766973147205759 0.027931210941976956 0.054574594042639056 -0.00040602563829385735 -0.01647529998288111 0.013507715782182749 -0.028783744873934952 0.12249673291569714 -0.06173604938625465 0.025405168523887665 0.11172059764959853 0.0031283665776089763 -0.011021118598510073 -0.01847938659379305 -0.009195596509545085 0.0693393189989559 -0.11171589689638088 0.07745014699162461 -0.0717668691446086 -0.013485238930512356 -0.022462234725010365 0.023531109641265736 -0.09323261374734378 0.011946995725307118 0.09642794107300814 -0.0710163860239208 0.005023505977931849 -0.04198757577192247 0.015346218757398092 0.0029671314582889402 -0.029258857140391455 0.030847191343651045 0.09983644712804118 0.00631281644239046 0.05936123865718376 -0.0444871722196753 -0.033527763655143476 0.03352927875968855 0.07980493584926612 0.01925443264539335 -0.016831277035268464 -0.0005443735473950745 -0.0630910216227765 0.03053263475693419 0.0445645494024268 -0.022834010003939597 -0.023720140918049987 0.013669491778537862 -0.022721088510077612 -0.007811600778110211 0.09725582115597571 -0.018257189761729253 -0.01620542620367027 -0.02738121341323789 0.0395552458287462 -0.014132700754438204 -0.039060402055241764 0.06676833557634146 0.07173822378705251 -0.024441975739232413 -0.0826920294727223 0.06510264824203112 -0.016432686343260842 0.05306892795300278 -0.09101926496654596 0.0483954949405348 -0.0605190877672835 0.03685005506406296 -0.00014172683512009293 -0.0482304535212166 -0.02051926464892998 0.03466431678339791 0.005348477563415932 0.029517312964681068 0.09982410731147348 -0.07886864500702208 0.08146962342464681 0.0043262708074854935 -0.04630650453284437 -0.06566246596498657 -0.00507563189704742 0.04909208402421252 -0.011904264935020916 0.0671756442753626 -0.08195512589479895 -0.00597217106669659 -0.06547656680678213 0.019462957249558425 0.04668145217309189 -0.019925315802533074 -0.12647857997781897 0.01290397663875816 0.021270220110808626 0.017349270707876095 0.0608501868511056 -0.054647711207414205 0.034241099042670635 0.060132952671389614 -0.08984418679509498 0.01614485526614076 -0.025464926960215146 -0.004117516783616283 0.017562214181954233 -0.024600311910998627 -0.033933609065483886 0.001777947546540324 -0.054720206780805074 -0.053989558219266834 0.03405791392838688 -0.06312065876818897 0.024640626887892113 0.015602466103624044 -0.09280805463056395 -0.038005090273485295 0.056185003165466124 -0.052365664696263296 -0.0263558593878168 0.020053470818918017 0.0360993743029142 -0.016244365550304105 -0.03396962292289353 0.06781488499936894 0.08629560427296616 0.049303277687700445 0.004505820417114227 -0.04085290924818013 -0.04194377651961325 0.02639094764993133 0.02113230137334109 0.07079141925528169 0.032852690803980095 -0.07591701957444924 0.05313137813892212 -0.05040968669516012 -0.019403589294772705 0.01289420712200689 0.09922195405882456 0.15242604543577312 0.024796927961098992 -0.013495304512559462 0.023285704147628587 0.03999494148166296 -0.022374026566624815 0.08404394788238337 0.004489175237261782 0.01837442862025698 0.028379969156558427 0.018419157737310763 0.04085942314611177 -0.032789150748667034 -0.029037696921433126 -0.05569179922726014 0.022168449950955033 0.0393422345533682 0.0231210212785143 0.0845746396189719 -0.000282641632976173 0.033776554252241735 -0.05513922089610031 -0.019551487472495993 0.03512996178186044 0.04288576177143499 -0.014856362478159513 -0.0036710860741150622 -0.07681653048930288 -0.018532401819693792 0.04400593048141848 0.028372506696822782 0.024485765031086598 0.0013162967352822387 -0.0014058232380139226 -0.03513070088626411 0.03344127476962691 0.019534375614369406 0.023311196268614148 -0.02719440494100598 -0.10908304823310849 0.05491187857783001 -0.024842982156761232 -0.04368244818557059 0.035025974373160955 -0.019799628285546916 0.053534871770408214 0.0311635064984377
0.03452546456043975 -0.06899118187074221 0.061212415034640984 0.013195144444574824 -0.018651312092725657 0.007242211257260825 -0.08971342701177633 0.020640083867780726 -0.05199111241398332 -0.06832016655925062 -0.07689075028402177 0.05619924966448687 -0.03173686568931878 0.0775775836616411 -0.02704815953143976 -0.0862340200564948 -0.0563930002034435 0.06241791262685994 -0.0078740470566889 -0.027692690384781646 0.00808214090099619 0.025343855387600808 0.0564371628581749 0.07316025914291285 -0.018171060649697396 -0.0669755222146671 -0.02088314422961835 0.013146150801102043 -0.048677176582327744 -0.0483434216100852 0.01736391016669154 -0.0024573148368669984 0.0016573931299554284 -0.03830642740798546 -0.011498854070466791 -0.04635430342919769 0.04546524550754975 0.05268533704411661 -0.0925163824395835 -0.04593941911964465 -0.07413862058659736 -0.03182781456917221 -0.0035567545009696083 -0.07218890855456767 -0.04530427455900016 -0.05004576721763618 0.010835573740665256 0.003845736534777217 -0.036145745841392025 0.009123180059408188 -0.027467923001962477 -0.013695579795773741 0.08452209436006415 0.06770350711695763 -0.06563876466673611 0.04190781566090532 0.04098171470802891 -0.05799605414746736 0.041355682169349914 0.07767605711351974 -0.056684099666417485 -0.046321494137995925 0.05169840835819707 0.014846077717444783 0.029933712876317766 0.020549791919264277 0.025281054546332317 -0.05978405491446613 0.061814086737181625 0.0690895799318788 -6.722300884322645e-06 0.009427223380200805 -0.06737684788659469 0.03267340028268597 0.03337818543698041 0.0003601793160453513 0.06002603444480074 -0.014455981425415017 0.029875379041111184 -0.05071080311872801 -0.0008130373886591178 -0.008734708278840304 0.011379768537871413 -0.01866392837207904 -0.006640368852830959 0.04172168260758969 -0.022058916921504395 -0.08112343193767005 0.08837798047849992 0.06996898279029833 -0.06413492484815397 0.037815844020934866 -0.019941377639172145 0.025092789190411215 0.029791086467554108 0.00464181423714895 -0.023903712547953627 -0.017177392757170565 -0.029642619471836988 -0.028358724033491656 0.00709576354180332 -0.03228106482766664 0.03424797773284151 0.0768806405258948 -0.02735348485075534 0.016305234793483277 0.028334007603051346 0.026748968373444617 0.005805616022701661 0.03743311870581858 0.02443582349459641 -0.06251139226052864 0.04389901050279047 0.044813599898084984 -0.03856456504714821 0.0018542736223916992 0.034518321860040564 -0.009445355874575437 0.057365067388738006 0.1254504943711753 -0.027940843433960263 -0.05184884641874594 0.033438451092498336 0.051738889505856624 0.006411711805579673 0.08988229752842093 -0.05322419865776153 0.0405887603182361 -0.023099307609660624 0.09254381081328153 0.10076098303224497 -0.031898192625749215 -0.014494807152714981 0.05151113043688662 -0.015148769540798909 -0.0008998312243438018 -0.0010319861983904468 -0.09755954467705484 -0.0007553910117507768 -0.034743132373189545 -0.02490646369119488 0.07291442708505143 -0.06345117491269685 0.040670441953881774 -0.013972746907750163 -0.013169889826631314 0.04564744339355014 0.029852358065482785 0.050911737297339006 0.0723427533173254 0.0057317670046672315 -0.012072716693753566 -0.03147894729526254 -0.027113642342028833 0.1648897911451689 0.08171419427352372 -0.03837905349949725 -0.03424283731360597 0.04849665265149725 0.047380711383312124 0.04585013659470762 0.0024770961134868374 -0.00010318382385278102 0.018283130316080594 0.0017591218908879357 -0.11403017230980354 -0.01200431962793103 -0.04292305745207614 0.008849513032251838 0.1507775645559486 0.01850597698404248 -0.01612654377430717 0.04650380257771551 0.02647637948257836 0.03076014438151874 0.051802240485758544 0.12915478802474967 -0.03160135408527402 0.044843532248698546 -0.03259155244750077 0.03805846220483995 -0.04966232333053107 -0.033660308541829664 -0.021912704330684853 0.050005492375161276 0.05364877535726667 -0.06643998852875806 -0.0034345329638721957 -0.03860942004137298 -0.05536557673382202 -0.005024787510425538 -0.01948665038379998 0.11235187069006043 0.015924983297104192 -0.07183630112448301 -0.028637378046757995 0.05158892163367679 0.10546227542755121 -0.079464911752175 -0.09449625533062213 0.09767628320422592 0.027871064810276278 -0.026865739942968665 0.05067561935127613 -0.11136061270495307 0.01856679892036087 0.03171704978548618 0.0574291835922399 -0.0529062219245448 -0.008466635993830613 -0.07829265448733125 -0.02110216276027081 -0.06899898339871888 -0.035255641696811495 -0.05743158572512479 0.01647378350684909 0.022053648820620355 -0.01835134780189593 -0.00095030759886116 -0.0902640259664707 -0.0358341634702346 -0.01712466506429533 0.12885256335454925 -0.0563350648619437 0.07392760561750152 0.05052212587602475 0.015159468716137436 0.09117103696759792 0.02634188337065185 0.03251497848696871 0.013680225675073335 0.08399688829495991 0.06868552870537371 -0.013580913311915967 -0.043041844073831825 0.008926675713767679 -0.029243952021692506 -0.003969343663608686 0.0474461785263802 -0.041878928652586016 -0.012982659613555521 -0.0033248084783160867 0.026890200146961248 -0.13242468346581396 -0.06344065094595212 -0.01829423822972105 0.03654043321976144 -0.056530695090443187 -0.13197411602767875 0.009271739947356594 -0.037633129955668206 -0.0605624931998782 -0.03149988433670603 -0.009129623271513673 -0.029376199562418288 -0.10819878869773167 0.054048671668807904 0.07710005016945941 0.03808081293697714 -0.05441441031932549 -0.012640413132183077 0.007147742790739447 0.03856379122771131 0.03590077539693683 -0.03536238178807894 0.0038076191915709778 0.018922016893178087 0.06965556279057673 0.04216942353509761 0.03470803387957872 -0.013172060694821682 0.04991827638970606 -0.013106717514707364 -0.07680751357666947 0.037334412970651355 -0.004849911093083697 -0.06684307529049117 -0.050478193129378096 0.008824657293221719 0.022958395992346614 0.010015114391496806 0.01592617757593988 0.0874147323486396 0.056827789149261614 0.01520962333886084 0.052383322176304856 -0.05820856945732224 0.0048856712114053735 0.07427237654811718 -0.018477277532269826 -0.05113745078375974 -0.051420630951253835 -0.06860170076465141 -0.0479975190977986 -0.030595747569955225 -0.0708979406883955 0.010233802182711192 0.04891802125121737 -0.05238370120519897 0.0627337643339818 0.0008015626228183691 0.029152416276123718 -0.05764532719231614 0.010540557234077293 -0.09083874233152045 0.021168671753455975 0.0028810866359648014 0.02756475618655233 -0.05934481328569858 -0.045040113953353375 0.031596023094131294 -0.04667354105154198 0.023710557888535985 -0.07710808492599186 0.017355607517197325 -0.09204351569979416 0.00028197278591714193 0.019810020829329908 -0.06086562416955913 -0.0067580308546956016 -0.015528801784326144 -0.06248481967558196 -0.07990512580087773 -0.10893226160557125 0.025974995539308227 -0.08277774711823062 -0.005614353364993416 -0.023005582828575333 0.01911715047394524 -0.02171390996192193 -0.022401774114361044 0.027204290822614264 0.003373023141794839 0.005016702563149183 0.020230365776136114 -0.07776187888978962 0.03825098805844502 0.031104666884980838 -0.05049385751853718 -0.012751527688476478 -0.009480484799387288 -0.029144327086730513 -0.02514679345720007 0.027068194201016495 0.025053803198547265 -0.0849289957551172 -0.005462909252149427 0.03217895106360513 -0.016727287813658964 0.007569106510235571 0.06042287547941156 0.03654836380283948 0.02521880180960692 0.051370287592104436 -0.010531413432326513 -0.013204894733283857 -0.026660906434609714 0.08142917400568835 -0.035700315644325326 0.08430201629706514 0.03270344349141951 -0.06999202395441032 0.018046221657841918 -0.10596302385566315 0.03159332634871802 0.04476648151854717 -0.029287803000924695 0.004409267603317331 0.08555902862617357 -0.05370886460885955 -0.0954782823418284 0.02407965952459756 0.06685433987938846 -0.019384258789193 0.03261345398140977 0.05718096035311267 -0.05606896223851054 -0.04955778764443246 0.04719179804740097 0.10002805316386695 0.0488714157514862 -0.045242044887352846 0.08377653746709489 -0.036547411085715596 -0.021859852757816323 0.018525547225636964 0.08761851553873012 0.06067118173829207 0.03736935476539538 0.029018656717998022 0.004005937049416565 0.02884849555421669 -0.12778446481441158 -0.015130445815685933 0.012347484138666612 -0.0604760912463857 0.007323519652263341 -0.03147631708687442 0.06153230810909249 0.05008856087172015 -0.04040058211757616 -0.013438060349961294 0.0029086479195048827 -0.0047757255116469485 0.018659011292686056 -0.023545734241398962 -0.027129504540302475 0.0716573784035072 0.06272593503209868 -0.0372576372854978 0.0468061820956984 -0.020935354156848808 0.018238143835048123 0.04234520021449364 0.00746962327978226 0.04063968963845754 -0.01062830366361916 -0.002036216548768446 -0.008453981038183537 -0.03761802241205794 -0.008934484919122729 -0.07856194318771252 -0.02496626429341838 -0.015809736918200555 -0.02156811913819135 -0.021210922212848225 -0.00572089919838195 0.0212353454944185 0.05014542806553083 -0.015738221221304593 -0.0367467298745844 -0.02655428339207934 -0.004288159891357516 0.018621087832574497 0.019267963538805992 -0.011712509270514631 0.0152686482577937 0.027476546647030215 0.04527178994471797 -0.006887419873963242 -0.012100883965713793 -0.042802545906935704 -0.000587270183177245 -0.033353771284409535 0.04263558202162541 -0.08019130232754713 -0.015566260575756156 0.015574276960609748 0.009292410878757339 0.13582619860424971 0.016860692772014813 -0.0520582498826891 -0.010454361604871813 -0.09330367576466603 0.002042875975256816 -0.031098829432190264 0.06415395999321973 0.0102452015000098 0.037021297088233956 0.01022965079411247 0.12557989549497944 0.03715883855273347 0.1596259916712019 0.09444288866560213 0.06291141320360703 0.04223162825375451 0.0386521502080274 -0.07700206273083449 -0.004665893768379081 0.045613445973212007 -0.006588939582236675 -0.0639740572879002 0.01184864041377957 0.09945336722476167 0.06703655168049642 -0.002654238482500466 0.04805544541162937 -0.01858682793586456 -0.08666112300190121 -0.04846513378340514 0.0751360769464238 -0.020902781780340874 -0.02341855851153617 -0.016378523633330696 0.11398569836022576 0.11852609608622638 0.16235264490325352 0.05090706547867447 0.08241851411224206 0.003954132075561679 0.1474269002433794 -0.015559700005945918 0.03598765095721787 -0.038812008257588876 -0.013726225372666935 -0.031500795191538186 -0.024213987258317006 -0.02852794138546605 -0.028113470572088867 0.049780350929227335 -0.03879139510014076 0.025920970113458626 0.06433004439044446 -0.025842952580904504 -0.03625540961868439 -0.011653925590426066 0.05825327102116709 0.005397130690816193 -0.032183845693592984 0.011962800598621962 -0.07900314683622217 0.027354955001793475 0.027901595966125296 0.012917908748451652 0.0017948300668767176 0.01567089466076345 0.1135146766534323 0.14267389847513165 0.01847785712533602 0.04820198626470066 -0.08000583753239612 -0.005183047404868249 0.019911362554649824 -0.03695451715934352 -0.043394401923817924 -0.03374614094021865 0.018256855713978615 0.005873921372636648 -0.09484431412394884 -0.0956392904433668 -0.02915285811398809 0.02334706709689949 -0.1387699673042619 -0.025178719151388373 -0.028416925527558798 0.06291027930813803 -0.02657031961333451 0.0029729353514166886 -0.011718800454625072 -0.11617273513272922 0.03658175274000371 0.03230757084171892 0.06705555497464967 0.258541695308941 -0.03421393743964792 0.14509541093036513 0.024470490427885627 0.04248002844063299 0.019850340308945023 -0.0028984731013153436 -0.016710205953547583 0.023269041613459118 -0.06898538155332655 0.04205027595802737 -0.011981288371073782 -0.04273208346636405 -0.010014497242229343 0.07135961602990801 -0.025301494683924064 0.018179770984460584 -0.03691886709351963 0.03818668959999762 0.03333437713430261 0.08737575207469474 -0.014471829996547482 0.018926337373385622 -0.010702744612265709 0.06277992049764661 -0.03847529582730009 0.04808975757577093 0.02029294070771096 0.03994337832752193 0.060078300783928194 0.05080535167706879 0.03497933801472101 0.04113083698604652 0.09227638872180184 0.05481420544559924 0.05573636894436325 -0.008340014141803007 -0.03313099101796764 0.05620562495769663 0.0509873357670498 0.08734523673361994 -0.018850300709333957 -0.007656568865859798 -0.08174234754764913 -0.019823254079012302 0.05033447956432496 -0.023574131273966663 0.03186421625721041 -0.012112726543129249 0.011473046224935784 -0.06574027848137176 -0.007414496611466038 -0.15736138724028528 -0.008719424050835768 -0.06887742767096859 0.08508564821288371 0.07266572908673283 0.05648888990021701 0.10609817658405024 -0.01988647704478483 0.10529931079477907 0.06045217785854936 0.012575206737991259 0.08386680211520496 -0.03341130466885092 -0.03304664971776893 -0.025918272803525256 -0.01832950546489996 -0.04063367294089337 0.07018880777378399 -0.010525412806215616 0.018335432354891858 -0.02880756774010434 -0.09195428723945281 0.013638650936086261 -0.09688029741817779 -0.004644831388605696 -0.07087829781498829 0.09954048219582394 0.04538807924627532 0.0068339696125744205 0.06709638661356275 -0.03553199867988961 0.04571709822504343 0.027491859777428986 0.027352303048035913 0.0666459593893917 0.039144183396224726 0.023898639080260763 -0.07090511687892512 -0.027509347558130715 0.014621674468067806 0.019315013564833807 -0.0496792288247867 0.1283852970144144 0.08065003728902545 0.033321431488860916 0.006246786974921498 -0.010154619531672638 -0.04828205581780135 0.003912482925470771 0.013018469214499772 -0.06271838025236902 0.016724221477648044 -0.009814409369295231 -0.09958879249683056 -0.04705465024893279 -0.02224624593083686 0.0923968471099962 0.021408145309025454 -0.07252294047390177 0.01811541444313631 -0.07534943409788956 0.06392461638906666 -0.01709831954844536 0.004708272690118129 0.08035707116031622 -0.05092100061422184 -0.05642503471455567 -0.018237799643720066 0.058420389999786125 -0.07635425902567303 -0.1432242610232309 -0.024299276202414653 0.026216664602630717 0.0596406042366286 -0.02311527181962398 -0.020891263284740644 0.058280788143455366 -0.09443621678013522 -0.01962326248312571 0.009608460154487627 0.021086354952371232 -0.028926438464159755 -0.003312738455749537 -0.13346651223470493 -0.04703693534287975 0.005216166936465977 -0.0695138974020687 -0.018983713975034466 0.009487276637972497 -0.02611529244133034 -0.00045720517295789326 -0.04735254949233219 -0.0097188399590525 0.028959263852877466 -0.0008808940083695599 -0.03988639091443483 -0.0014768997095960848 0.023071506303805007 -0.11377625234875978 0.050502497504489166 -0.021346533076353626 0.021592704536763607 0.06154141936500779 -0.06911335466779549 -0.035832181690592865 -0.01457390996830326 -0.0395855306832798 0.08760333552175331 -0.0432689273932016 -0.028467581633392403 0.008705902165872883 -0.06386287174885177 -0.027650160233172863 0.0012139557038903152 -0.03609459179503849 -0.02533113477041257 -0.04737155564441811 -0.09829226863875541 -0.006361107944156661 0.06973293542014018 -0.014253002396512162 -0.006666387793388626 0.013700746333967877 -0.08656668368020115 0.06440253031703129 -0.0061657133136504595 0.07091474587235645 -0.04382537631063443 0.08830873364452253 0.038056815579643286 0.028049973848932874 0.011993790706700017 -0.012552590797097479 0.060636005481143396 0.0070892439840010875 -0.09935202331950624 -0.05644619925743814 -0.009785651013187655 0.015318574464382992 -0.004119777735203364 0.06007666210254373 -0.10000813667622792 0.004839591682792725 -0.09424709406157183 0.034325035334924404 -0.013060441462202081 0.011462644440547998 -0.05488140760015349 0.057315005179010475 0.045399275697003666 0.021497830279108492 -0.014553853815179513 0.021709851006512543 -0.04193579816815087 0.039627822489474294 0.082099581763147 0.05384727850120253 -0.03687172284047426 0.01825560996249416 -0.0653135110446986 0.028910076465557027 0.022758909204350197 -0.09443998666118579 -0.058678945307386134 -0.0143006738503711 -0.015190831894950001 -0.061050860635461085 0.019667490385833118 0.012571182711729053 -0.009809699881536375 -0.037970137751263656 0.05302051105790206 0.08359921097867709 -0.024436312707966236 -0.02988942542843852 0.02538494594860133 -0.017123755939920236 -0.006062018488949439 0.038181941402852596 -0.09633059258587426 0.06624880710334953 0.0032485861037910057 -0.020994262797240586 -0.0046566490478260674 -0.0018766833835339107 -0.08743887009034976 0.07550578272051289 0.0020872596296697098 0.02237498646567332
0.04806052110067208 -0.051576492745286306 0.02391394217922017 -0.013517916449907292 0.042768382661869456 -0.10744120957546491 -0.0050050179769669315 -0.030447040967440057 0.02183257597493694 0.023740816596098273 -0.035740504912275234 -0.035970212053050545 -0.005578690831542017 -0.045254857030637495 0.04253646480994927 -0.018647368558754544 -0.1468250773365528 -0.01893137271254051 -0.052454384162725694 -0.08239187079271783 -0.06249948336486097 0.005525962310882179 0.06710649567254537 0.015818204659447742 -0.030633047044283334 0.02302663914118565 -0.023187562252348914 -0.03508261651785277 -0.05830411933258143 -0.0884807163380056 -0.01969412121811266 0.007982906750908918 -0.004879359273341713 -0.02100677796773392 -0.04774006068620482 0.030795723629981182 -0.0664265902197139 0.03940176018766834 -0.050066716498236574 -0.03729899735526419 -0.07327939900499474 -0.02472762681848321 0.05019309460099148 0.0272893464771883 0.05031094350455127 0.026741177009624476 -0.055495524302691286 -0.016477299201137694 -0.0392004092234416 0.06736102657135963 -0.06030475306267312 0.04516152091454695 0.04510098120290587 0.09240977511638172 -0.020692297700680585 0.035977702102041334 0.11524082042309683 -0.031195615578803407 -0.07753022024229501 -0.09495660253418388 0.0360073060412444 -0.09510324765323362 -0.018678067677118704 0.02262740014954735 0.010099715002621778 0.022951032889891847 0.014603772300324254 0.06873642081413012 -0.042963943500661114 -0.026848096780660812 -0.03037256471508207 0.052285648212008304 0.05400493578484885 0.027502207549956758 0.06261812359083557 -0.056828789876348304 0.08582851336478711 0.07789579199394926 0.037766982163574284 0.09033145014608766 -0.08343267536538093 -0.026405534293059692 -0.037138433091296025 0.03644020873676442 -0.053040117012352395 0.03825928262946089 0.06923036143055923 0.035117782852883646 0.014322840482567592 -0.04976587797333857 -0.04214859595932367 0.06442924005842565 0.04065117979695603 0.0016491989095534793 -0.016942600203553912 -0.0992803331808819 -0.04857846673226813 0.10621910341394901 -0.05431414667667378 0.020289019550511853 0.05971962699847339 -0.06132727758685428 0.007850948721626021 0.04875498054889898 0.0006520420273529804 0.14479176929234994 -0.08447033124420608 0.053367238305727566 -0.008524409723608909 0.03887841035633554 0.022232458025545413 -0.03702997990324426 0.011566064426803961 -0.09383924020065215 0.030481156990359644 0.01504478424210303 0.03227967185077619 0.05420292094964469 0.01987292555685129 0.00856653320076189 -0.04362078267078481 -0.035311912887997746 0.0640175316024798 0.0784223187564543 0.0015596996383835568 0.016955623493560334 -0.03951859683648952 0.058609059915331815 0.02922627276162992 0.09421580069836885 -0.0437643977719257 -0.010241911140018795 0.021412894324988812 0.04081045854856915 -0.0074466846665664005 -0.04276315608570737 0.0420151146304312 0.035059052147305786 -0.04652914137115213 0.06842866604887446 0.059103960186333085 0.006782997420965347 0.0040442422340157295 0.027900853725803688 -0.04399384392390407 0.00260954799705557 -0.10612965897271075 0.04783786479308745 -0.07537203809405715 0.07933415467948376 -0.009159666626748759 -0.000494686118968538 -0.015129843949791347 -0.010216134303420204 0.058035414936734274 -0.14436605940783864 0.038206516745960144 -0.011002817610766167 -0.07872906600386653 -0.06934266508420606 0.07821462115114232 -0.04444657160455167 -0.05533751115001323 0.05710213219969664 0.014609436722669419 -0.050815552145184406 0.010383647496588514 -0.051818484872854266 0.05559987683570588 0.05360611838038418 0.026885212284895366 0.0185283118517947 0.08842976549635204 0.0018065072268542183 -0.051232858799959556 0.0351094194150863 0.11779588754871755 -0.037007382975368985 0.005933839598756268 0.05023610514610311 0.01838409427718679 -0.055896854862133305 0.02742154926280546 0.0763612225913609 -0.027918557938766134 -0.07510641003963667 -0.1005647071445003 -0.010736513991794507 0.04187283401849786 0.018892731902479927 -0.0069298410039963535 -0.040957265639034415 -0.06555679956700006 0.03605285966935937 0.04504319379027856 -0.07809975849594684 0.08030227241995604 0.02901824568494182 0.07148969710892727 -0.06618356737363104 -0.06658000503662781 -0.00032799855175708596 0.03952473619493629 0.11100924926287112 0.055293006832613484 0.015351336902279916 -0.017996834635229626 0.09471161498857587 -0.03143719206166177 0.07542950316783795 -0.031110628961092568 0.06113784794006114 0.02036538667927233 -0.005179605855375598 -0.02136408843583438 -0.019676124207442566 0.016368238159529903 -0.0067803737488984096 -0.044995216947499764 -0.032419667848446306 -0.019926453910970393 -0.11921183278371078 0.02163324484634734 -0.04967739640312497 -0.05838004851470287 -0.0849307082966127 -0.08902397899935371 -0.06462662062394889 -0.02925130708237661 0.10934522275177906 -0.01158319702944109 0.034011787528858535 0.047517785632934344 0.02864457102057016 0.018269886549382386 -0.03938845783926883 0.07614466408812681 0.0884126003650371 -0.05942320036183186 -0.015954030954950727 0.00972806375124441 -0.018178516106262685 0.03863532032838264 -0.04348491667547592 0.084156028971382 0.02509052665659121 -0.02385787965086935 0.012943074702485622 0.019871310803500887 -0.04463695900639907 -0.04434942464423928 0.0034077944320358997 0.04360769796905281 0.007563953667935034 -0.07685432713676128 -0.03459444810701982 0.003962460144703481 0.004320150732998392 0.1046838663496263 -0.058154367110921625 0.03532057243619183 0.07722421076929523 0.10007777989833638 -0.044561734003268405 0.0012790615989026048 0.03084840666698086 0.058162847115749074 0.06592045063671417 0.0741952891877166 -0.10598057195391261 0.02125219385993273 -0.028108501471165816 -0.06180128588159307 0.053255485058837745 -0.08053261962403487 -0.06481009828399178 0.06657951474838537 -0.05684172717880076 -0.03038179091172477 -0.00700177894597106 0.042578591616524844 0.011260623457505023 -0.06219247436107881 -0.022995064338394433 -0.027747282828784164 -0.003981118245550362 0.01341391747046321 0.011523112152231724 -0.10412644747698901 0.026090045694901587 -0.03876968153239656 -0.00013037637286511183 -0.03779899342830163 0.04488529547739319 0.07756892891938388 0.1587118619360911 0.09049729536768845 0.0064839809246884875 0.08311242532272266 -0.005747808665629469 -0.025263944433125088 -0.10739481341779199 -0.10549296130839483 -0.021922072444066562 -0.016967630354964763 -0.040880559949205926 0.004995901921337287 0.08003957992460722 0.035184780535628596 -0.057123262832767835 -0.0038636702521354363 -0.03937985506147822 -0.023097665674657805 -0.03727764588664533 -0.05069135148595989 -0.09632751007069591 -0.04478894478840215 -0.07857115131488902 -0.23116942842186744 -0.008478257292976889 -0.04809392323727936 -0.06466733669714096 0.040022811231090125 0.024351239844769126 0.1353936897758004 0.09301392275591362 -0.02211943609230662 -0.0005057317358109885 -0.03386912286879507 -0.09884590367843724 -0.04938522111650292 -0.015867914519945004 -0.03704355273779348 -0.015700798301631402 -0.006346063647441363 -0.0041797018271950166 0.0026738461156137023 -0.053321283007620256 -0.03512259064277163 -0.0657273642792253 0.04246071139109145 -0.13012478657447 0.015269615213733326 0.018814306096868606 -0.06784879041630883 -0.20305601627178538 -0.13665590888156096 -0.1503380054565919 -0.1891325880830497 -0.10805293787800581 0.10393789795563539 0.09855367167115542 -0.012959647448997347 -0.07993436792320247 -0.04508934549557664 -0.057629682888069765 -0.008919279854694866 -0.05264915567223933 0.005458140497461323 0.08455376725620738 0.036542677933335745 -0.0009690828611910191 -0.00837325421846113 -0.017757452830311493 0.05963504822799389 -0.03162630406628966 0.002985437088035327 0.00047563549257743795 -0.03334642145565327 -0.09571707313122484 -0.030995146284209612 -0.0661600803363148 -0.04351182972775232 -0.11385247955798952 -0.06013478118663745 -0.19176427460342146 -0.05455202745893745 -0.14704911661064057 0.07140572161629449 0.0941971640992408 -0.006052676762157041 0.02444884724950903 0.03410054550755522 -0.142136651733761 0.0041861687482859025 -0.13594283240174312 -0.05732692934053611 0.0814005167864456 -0.02621196819171199 -0.05519071636332772 -0.008887172732418458 0.10474538294904752 -0.09251407241573094 -0.0531369002653941 0.07587877378402633 0.09142001303861536 -0.011540971278592592 -0.08455793651345805 0.0639725693365615 0.019965444683098278 -0.034475187651593346 -0.12024806016765896 -0.09957288525763074 -0.11309023010538116 -0.0660510277414756 0.07656010713731437 0.12925872948049943 0.024740114827822665 0.09868671169746417 0.0039701914835999575 0.016593436321857776 0.0690578213987531 -0.05306250921986434 0.008009552832794063 -0.016938262211694904 -0.07012021495309566 0.02339682850759653 0.1312138565131973 -0.09160875416284521 -0.001570296147350257 0.03235366162958266 0.006094686311517563 -0.005732429537535191 -0.06784984270602172 0.005188410899910759 -0.05544437773366288 -0.14000765112173075 0.01246708888755711 -0.007989125839256993 -0.06185801620297811 -0.04886020412939719 0.013082743960739222 -0.0022859950373006433 0.10783374090751824 0.10200886233775601 0.14341045961429555 0.03118347290656206 -0.006575380904883145 -0.0834709954851015 0.007446858077086227 -0.03463442111586244 -0.012615749897074 -0.02759683096136298 -0.04426973133751363 0.11461925054581737 0.07287797440020988 0.09887981407094514 -0.06151192776917958 0.0036068943625927694 -0.06543759090820502 -0.03557366154526906 -0.04975294253172403 0.055087114358543875 -0.03633916101137969 0.03010311632736851 -0.0027490592507272526 0.07691697423334638 -0.10643513252109454 0.04610250802220037 0.06098742882198556 -0.008127168162995602 0.1613518936700099 0.1541567082268974 0.05456923443095673 -0.03729641327603727 -0.07250739503468119 0.06857678628806654 -0.014930277465071057 0.04062051221149415 -0.028438284319721046 -0.032330640524272855 0.05993126907602352 -0.06083555580813306 -0.013510814638028789 0.004234164797697782 0.005942669930334098 -0.009045576878564228 0.019974065410693406 0.03437399233792813 0.033637510084332585 -0.05797350005700158 -0.035808150836248914 0.027244559092350157 0.006105130441929841 -0.10404252670238726 0.0030673873795057927 -0.08590786548509233 0.04187330639848539 0.17560341762143128 0.08207931065642948 0.08132310806179031 0.07880195527245491 -0.10136072713548812 -0.08054798535188991 -0.013801622149138472 -0.06550676617270534 -0.027707487882120838 0.032135271652321856 0.022350431595056664 0.01935295617406234 -0.006869603676109019 0.02752354206028645 -0.004136150787776196 0.023204873590026303 -0.025020869725551436 -0.00922467799534539 -0.05108882813656843 -0.005171524501062285 -0.04942382692678342 -0.08379150743886637 -0.03620909078395165 -0.03635632730741407 0.0033068274855425784 -0.030484632082269262 0.04182409477736814 0.0824293571674741 0.11575107399995288 0.07272744057517014 0.0911706610527568 0.021486729116822815 -0.034221255663706575 -0.14371513006238934 -0.042738972366987434 0.06773514356657388 -0.044367395171960394 -0.05057413049734365 0.01413975465504717 0.021696951156515615 0.06994046829794869 -0.05629209981285212 0.03824037387364731 0.030053923858405655 -0.007178178930505055 0.01717355329341259 0.050831942001139066 0.03947816673565087 -0.06823993877942197 0.008380399613339872 -0.049175893641468085 -0.040900892190453224 -0.030596548546811472 -0.011144455039705578 0.08692478746387862 0.05364931166281408 0.023608715865484665 0.06330641581594883 0.05770820324557931 0.06084193184699224 0.010013704323663938 -0.07921172681190793 0.07201770718327498 -0.031424700700004395 0.03482298062473154 -0.02824641656889791 0.019617572542544152 0.048545257204173055 0.07014085132901365 0.05849161171325031 0.04507766755604661 -0.015835063336586592 -0.02887753595597852 0.01672379118061161 0.04580596319035254 -0.01585828493354339 0.04447190675967779 0.044207903693162576 -0.08339080754373622 -0.07629748007243384 -0.027831123973119553 0.01558621332367185 -0.0006390021487498789 0.10959576614930305 0.07901634946832867 0.04731785092548987 -0.03673021379155567 -0.062005494109340635 0.004867766033269845 -0.13896529142463734 0.0006796419062866578 -0.05152188579983053 0.13181545102229586 0.09788106500030078 -0.015107070356813464 -0.0009754736051026717 0.0568301593478941 0.08818611261089365 -0.08214984840435581 -0.09021915314505188 -0.03141507712288541 0.02941452973056679 0.02373156117121203 0.05117469757480485 -0.06555374770097806 -0.12811067491053799 0.023962776776407912 -0.05947945071142594 -0.10765711140684606 0.013608450038459261 0.05594169080759612 0.0071802864463488955 -0.008143641007966908 -0.0017791928236611232 -0.005446684210504974 -0.06450385247777073 -0.042353107977452634 0.0015222907213181356 -0.023557243556691945 -0.02661885818234763 -0.0731973663250658 -0.018841527456743206 -0.11423367660274897 0.011651951125431426 0.07620065188900849 -0.07269415813079924 -0.029612166455846477 0.016622156724833134 0.06328045793308248 -0.0226395492170454 -0.036058373496833926 -0.10149386543424004 0.006153548401912859 0.11530397649035862 0.021203052455197238 0.005921305401720891 0.022374009481341488 0.004507982416639165 -0.04244288129874319 0.017229202421235143 -0.02231604867196276 -0.038399098355351 -0.0729483163396856 0.05226244704599349 0.025729050972662888 -0.04527875840718421 0.02278494368465766 -0.046893230872229096 -0.05423430710077507 -0.04770218085078808 -0.0931235092740208 0.02200167223227641 -0.09190205970563517 -0.061828525560547506 -0.10491157469112138 -0.004347629692627774 -0.007592329772094553 -0.016500650552288856 -0.05293192914906276 -0.06132170429076792 0.026572816265856596 -0.008313318523230116 0.04630537148138654 -0.017779885848952823 0.014001296221348927 0.06356195949584995 0.01692711335209781 -0.04630770148471447 -0.02256687883611125 -0.06103835432702406 -0.03641050678738274 -0.03233666919740394 -0.016281667402893853 -0.004204473254902224 -0.07483295008334624 -0.07391249001679912 -0.08875822889748414 -0.09359978436490186 -0.06780570157171727 0.0023244617526948846 -0.04717778446775916 0.025398671310791737 0.0019027958860676347 -0.0994244770083099 0.033081262651055536 0.04095151574819759 -0.05035101476534824 0.020532923738931484 -0.03932462456862858 0.02076147503239739 -0.04041615074482483 -0.06943192457008977 -0.011102488226247504 -0.010201706384181579 -0.036121640240345 -0.08124239473884377 -0.04775707868917523 -0.021933775648144138 -0.02820575117515336 -0.007998165514512014 -0.05314056715312148 0.042474028676706584 -0.0809276984274986 0.0006121989389455106 0.041578876379794474 0.012664392286067474 -0.01723252080502985 -0.030722043786583643 0.05170001390547543 -0.07151616910951661 -0.0488312213848192 -0.02007969942089767 0.06251095462126748 0.019181162194264446 -0.04891975252652722 -0.014925017510404991 -0.027098604771103207 -0.02860017679339979 0.060191030531170704 -0.05518227634855594 0.0984733360128531 0.05455700523200194 0.05568528039708811 -0.02285154921588205 -0.010805872058504478 -0.0821817783994584 -0.0326540701963327 0.022920361888489678 0.06176835068443616 -0.060592499674602 -0.028397243013244252 -0.022964923092279252 -0.08341724252307875 0.022356602260592544 -0.04068813893840173 -0.011701378876050827 -0.023166071513582097 -0.03974277897158581 -0.00020653599173036868 -0.01088992822101588 -0.01878165929977952 -0.0367928680374514 0.01613843296193049 0.0835114470190673 0.007174115765314467 0.0508227908604228 -0.06893414050261865 0.01141090269645809 -0.048053510429748134 -0.0645482967359303 -0.026622538597375702 0.06975606383303581 0.05166817448070243 0.015634850098661352 -0.07274688248525717 -0.0012517098523663918 0.021909604929247956 0.01333979656350431 -0.09105121417283238 -0.04759646707779159 -0.007039588960249327 0.02531582312259033 -0.11144630070424233 -0.008377464278494343 0.007224116090550904 0.04291635295678369 0.03499459258648722 0.029424295003892587 -0.040403096916767176 -0.09636866069130826 -0.019852162134441804 0.050590046846945104 0.07039645375387993 0.035977450450180436 0.021881360082741674 0.019620413598705373 -0.027375590774116894 -0.005726368430302795 0.08571893887459572 -0.04670683918605434 0.08256892247450169 -0.014065311745519402 0.06914666456859883 -0.0680415606758045 0.0330428159397772 -0.034059245441440365 -0.06981472993886269 0.011618381329615051 0.0505885654156418 -0.04292241355136284 -0.075786985582735 -0.00456394465968661 -0.00441615099240143 0.027694323350104865 0.04796176862784018 -0.0030009198273720384
0.09371706974322432 0.011325564888466994 -0.017497180827160067 -0.08139644342575039 -0.013266309139911996 -0.016990106443060243 0.04850271667547098 0.023358950483243032 -0.0595671359591747 0.008700160337169463 0.033917446093411546 0.07717723829205964 0.04482571954917471 0.03842855919333878 0.0030348010176228977 0.019612718017933472 0.06310952774393917 -0.06731542396928707 -0.01764935127774103 -0.039020614369881704 0.019150124382805035 0.06213560305490999 -0.03015175473817669 -0.12072860195267576 -0.020820291725183827 0.046137390738949374 0.02715441072460895 0.021626671388405846 -0.014141797317304049 -0.06460080763764522 0.02602629350911305 -0.04213759466400501 0.11031354363862195 0.028814965410234625 -0.029327168015739778 -0.03088501877247381 -0.004701237323219223 -0.012115488611182992 0.05626098082286678 0.00941375795896448 -0.03707646009089284 0.09541603004238146 0.002549094810808318 0.03895684338761703 -0.03075595351261678 0.0182373304988403 0.0156476663750672 -0.09546572358364264 0.10178270058855009 0.06518712451423092 -0.02006247700966168 -0.05567454374315751 0.01755451242861654 0.00437889508351377 0.017963994670467776 0.009676119712207332 0.025569031175200485 0.07309997674927751 0.028693544911448418 -0.053015608656354865 0.06881981663899013 0.08286369245224505 0.15920314802833987 -0.056767240693500226 0.012163357370091521 -0.10530859090902124 0.027524458973102368 -0.0278287995492653 0.09734844935808093 -0.038239405119348556 -0.08442172189535634 -0.023175390314694816 -0.10044219632370555 0.03677178887606828 -0.1049268635086401 0.001084072913404018 -0.10531415663425495 -0.016567546162388768 0.08275435070241785 0.01811226215549949 -0.04365262385860694 -0.0015818176711097764 0.0009099894570284654 0.02387143732431538 -0.06903677268552984 0.029929166974762385 -0.13658987778312956 -0.03181337259023481 -0.024661421118765566 0.031996680970910685 0.001186012882101664 -0.07096674090729557 -0.049911094346408724 0.0101413106226456 -0.004367186081890428 -0.02904625116832575 -0.022474839747201224 0.03797046983563688 -0.025076673788416083 -0.00638616886018292 0.10628294386062023 -0.07619176172020177 -0.09717855714187446 0.03663672948163801 -0.03694947918449221 -0.018466115110540277 -0.04117365073677034 -0.014261050756739195 0.0800858416640636 0.04046683578948472 0.04347751928344295 -0.07153026820363133 -0.0581420438074833 -0.14339512660315418 -0.04087124208772296 0.04832712359318418 0.026087801518542984 -0.011166393237034092 -0.0012976738336932373 -0.03515507053128584 0.00969362232309715 0.037557612106167 -0.0824343995936078 0.017621688708098833 0.052018532072497244 -0.016118497284802833 0.03587615174475794 0.13893465358787294 -0.009110230550843045 0.016377769619300764 -0.04244207383577001 0.004010237257322392 0.018324493180761445 0.006325115633665915 -0.05463402015566768 0.00821083769838979 0.07221560996492528 0.021726296160782633 0.0482623817285032 -0.012048744266205383 0.03787568175070866 0.01410515586930094 -0.04802487622330265 0.0161616571272655 -0.050180070209760494 -0.03168686114024848 0.009144327722260865 0.015097848494250235 -0.05967275450014429 0.054208960255276877 0.03164968505258186 -0.02924058899641644 -0.07056189011320463 -0.004333256913552574 -0.02238199364568243 0.00915014559959365 -0.01586392609611422 -0.10605651114973687 -0.029146155817180025 -0.030050012729087965 0.0168284598352366 -0.04530366968799472 0.07885991345903262 -0.10081701389585478 0.06285408225242821 -0.013133962466200967 0.04300343100275025 0.003993922240709726 0.05755624621873431 -0.019564733698753615 -0.05554059261688351 0.07201962667938978 -0.005725887374699189 0.011819613838234756 0.06439809428306455 -0.047853103249594305 0.03725842426408381 -0.02022728161704538 0.0073491132719226806 0.022176606871624267 -0.06320884981913773 -0.03511676782583591 0.07288536729277825 0.05238214736514378 0.008325303814339978 0.020066447339043336 -0.014809527603907956 0.05660044332579762 -0.027101607452515435 -0.0009191397595030565 0.04919560813046887 -0.046336739139145294 0.07420369284156862 -0.07891278878278786 0.08205300539292985 -0.018860391898699713 -0.012258137883767183 -0.09545986531440304 -0.022965866076272663 -0.05193910605770878 -0.030442163206504003 -0.005448049460794023 0.052348477031296255 0.01715532096450696 0.027412896736842288 -0.03784576786730212 -0.02322487800591323 0.10916263723072292 -0.028888093572075998 0.08411183856293464 -0.002898170316865275 0.01951108367642488 0.08090475341574584 0.08819624884098429 0.003999050469025287 -0.02403086808034636 -0.015560167939023557 0.003167089067884091 0.03443364213065383 -0.008456436253210178 0.02568408757519996 0.08067924155128053 0.018881673260112426 0.015634615103855557 -0.07671658174563149 -0.13287082026985392 0.019449867206695504 -0.00456338697621878 -0.026161734322854815 0.012904676974942436 -0.002121696528970184 0.0620493551801291 0.01520081076188557 -0.024538675447539664 0.058493444151707506 -0.009426387591226723 0.014876236592492688 -0.03555382531129818 -0.019399358714532938 0.03755351615311978 0.036676725332862814 0.05170007409473825 -0.008823175020760748 -0.104564088381341 -0.03903146660584882 0.022967055369678944 -0.024785322365339018 -0.02071315031978779 0.04379247618875699 -0.03809580226526036 -0.07814586865278375 -0.008176732111389244 -0.024454477442990487 -0.048771933009737346 -0.009114070953657705 0.0246412368643763 -0.0014486592138661253 0.012315629993813998 0.08699403050017047 -0.018130768614228028 0.01642865309509539 -0.025673987961538556 -0.05336231957886982 -0.04828711944049711 -0.04638270485924911 0.006234264917343219 0.1322545293566186 0.009024267097022583 0.02373033429849819 0.017674999187414733 0.013863384466859635 -0.005096705776903129 0.04403852670431719 -0.1383660257732457 -0.12994988997979434 -0.03336592517644937 0.05044926659995329 -0.08056263008364713 -0.15220431622495414 0.028787753689645208 0.01230654822609121 -0.05504474885504976 -0.04982273786285639 -0.04946266261049579 0.0036659915600804173 -0.03718119436788656 0.017218875308768637 -0.14920192970733342 -0.04780939705747487 -0.06586147634191998 -0.034309584466219574 -0.05143971007229339 0.020555925273930346 -0.10185195833170861 0.022020155212801342 0.07971387107349114 0.1404585585560038 -0.009557767041427481 0.0016548327812588304 -0.11377230464897665 -0.14338678241254016 0.028834000889872362 -0.010428221418899035 0.050904614249217585 -0.07398177424948024 0.024611474005280024 0.09384183999532753 0.021028377641339663 0.01396947558244397 0.00043340638576519605 -0.07927502494843514 0.0684737509122098 -0.03236313565897285 0.01951867576416915 -0.08616705715567068 -0.06475511443188588 0.06613648539264107 -0.03178174117838052 0.05330584602850737 -0.020152346259813 -0.1060813435964686 0.03720296794845593 -0.008321746812979468 0.08992168452723188 0.04959681846152373 -0.06466421231781581 -0.007260614040485538 0.08455079728399359 0.003150847279472559 -0.0160566425065133 0.0449211252109068 0.003488081390669296 0.006130733963748718 -0.056399398607073395 0.011024895198007477 0.052203676151895445 -0.04222751551738187 0.07195884839372253 -0.004619530578053527 -0.0448312879582015 0.04957457456628042 -0.01981370868362681 0.03223849039576705 -0.018365484659696903 -0.007892285365369763 0.011707033930035186 -5.629775043100757e-05 -0.11064128369600919 -0.06680738905287864 0.03985850513975017 0.01875809795816451 0.028985991292947176 -0.023008525719618478 -0.04578759124538325 -0.1184666436786695 -0.027913095741230815 -0.047353456351193784 -0.05897651336607183 -0.009195997153978633 0.01368544112603258 0.10323061831930815 -0.07597682967088894 0.05836326285381755 0.049175057023471885 -0.039349364791989715 0.0102707862826369 -0.023096777034182097 0.009542135303531173 0.0767831135034615 0.02675909302849552 0.02048966477429733 -0.025221501280236834 -0.08065318733659355 -0.02194698294578613 0.05181022750840942 -0.0836175066967793 -0.06230730510540341 0.007909975371184305 -0.015257280130412575 0.009975822896319769 0.011972116680908714 -0.06529625717619575 -0.06454917760549464 0.02041896269559724 -0.07478193436035009 -0.08232401341766052 -0.03210251246654699 0.035971111947227345 -0.010762250029688286 -0.022694197954034552 0.002283245550023206 -0.08813542094458243 0.024971392919100242 0.019367075113248488 -0.020669330151971234 0.051073343665164576 -0.055916180309683455 0.05532947210203752 0.004447754858048932 -0.018474519556417827 -0.005261902675829975 -0.01199452861575053 0.05607066033861215 -0.057229717394464204 -0.039938173589771045 0.06233190942497814 0.003481822800256218 0.0818395699030418 0.10504189642860821 -0.022076730627090292 0.02669914706206626 -0.05899757282006361 0.03998704672909566 0.017319592174013267 0.029807722535261382 -0.03093310670170051 -0.08375004222018291 0.026263475381918592 -0.10406950549098415 -0.01600939997477587 0.047532156121826284 0.009692299309297771 0.0983894447986732 0.0520757751194801 -0.032476688477394114 4.2623257957463605e-05 -0.003946909998901638 -0.07995105396514747 -0.04684963677521638 -0.03042232932860038 -0.10348819781346398 0.005590037866278003 -0.008864784166162596 -0.07230569018818965 0.04850577473227757 0.06302975046609371 0.02443612396065388 -0.020321117826972483 0.025521224915693152 0.036941784520642486 0.02298567413408711 -0.030845517998624675 0.01994567048881415 0.06282858438184685 -0.029364358408513317 0.10703583032166088 -0.026014860967719565 0.0017038276552180163 -0.033964452102431326 0.011277878254412907 -0.08801620472163657 -0.027362781790049497 -0.05466180483192234 0.005876049447343126 0.049607243359077256 0.035343329323258836 -0.11530616897038982 0.10502934651557176 0.01581431742828539 -0.03890880685752263 0.011150518211954166 0.028545817428454245 -0.0024349964188879786 0.035027442452681946 -0.02193241974677999 -0.026321194468772475 -0.04111038725093704 -0.0726610127661335 0.012878230336959954 0.036003681223683554 0.029015476571928416 0.04217741145756799 0.016770550853078756 -0.025853166600649614 0.04283153548690415 -0.06847282199433809 -0.045490774442516965 -0.04869620900009234 0.054543987016656165 0.04765915682389317 0.024711173064637538 0.05288119795620036 -0.04582920851082706 0.018830561394105813 -0.004510134616966878 0.040901762516570975 -0.009841089436269478 -0.026830306370085485 0.02775768997722064 0.06608639342631145 -0.003815198638693785 0.015769733508167377 -0.050938232475295546 -0.1373598106734175 -0.004009144302436768 0.021123687451356708 0.010334128736571562 -0.09886949878349224 -0.017123137009338735 -0.1116481948304369 0.06986081088565069 -0.053729735696612574 0.06380160729343153 0.04782102913067248 -0.045486632724262885 -0.05721373317986187 0.017694873281028867 -0.04260146020606042 0.0052220746701551425 -0.025712836540953583 -0.09233039551774178 -0.11527579919662166 0.005618368955322657 -0.038732639657739966 -0.04311257877249732 0.02128850973988359 0.06176259473345251 0.0066756893864986415 0.006592394584125496 0.03299237698624068 -0.07700318473077293 -0.0070078889132882734 0.0052525946691983965 0.01974995126531342 -0.10277497137641185 -0.039855258888183205 -0.04512393022081159 0.005926396256337509 0.025822636244093183 0.07678928089512081 -0.024423133646678072 -0.024935222757522166 0.05806745119559225 0.014971660954295628 0.06399983465104948 0.014667230197773322 -0.05854758124866147 -0.06901840022833432 -0.08064559143419407 0.028388024966562522 0.049872476867243984 0.07521453984709363 0.023780247862696315 0.049148889148321356 -0.024062702100599114 -0.0402564709185285 0.060110367923630115 0.021984541538068156 -0.008894835675831485 -0.0016888050052824672 -0.004693380295867214 0.052917869785759165 0.06165230665552803 0.026224910456472867 0.04125323214008703 0.025630616230968104 -0.022114301980004164 0.03931244760141082 -0.07001048496582411 0.0533249756414085 -0.060332519356532374 0.014406536278960621 -0.042759881541361795 0.02789535018271802 -0.00197679755618915 -0.0823453762832255 0.019717126493614782 -0.03395836138217034 0.03463722324247351 -0.013862559054245497 0.009711804039581762 -0.047279111375883184 -0.02151174884421047 -0.013908176399944294 0.05209893881058454 0.07987695033770692 -0.0543009349041273 0.0380270519143869 -0.12334186757825444 -0.06766925302758187 -0.05147446819651771 -0.06906505269236671 -0.08149263605620446 0.019301550974457286 -0.00979847008845549 0.019842240441537148 0.03515300000276771 0.013417561274688957 0.0332224477225549 -0.003511885377024731 -0.06007088802705904 0.053296219435840037 -0.0300020302626257 -0.04735360056039501 -0.009236968349912288 -0.04884160356617495 -0.026579083717509673 0.011863294861124642 0.01681974101812033 -0.043716137180431845 -0.021551750969161093 0.05285016370068297 0.028028111359988974 0.10288116601940574 0.051954608717448204 0.049706282821102205 -0.0750937219814793 0.03525307792620094 -0.0035821425985792855 -0.027947727002547235 0.0068626164035778935 0.04770032574719619 0.02645551691796656 -0.04380982751483381 0.03759596907274302 -0.03220303390014123 0.010944528416098083 -0.015321324931152364 -0.011240731825715307 0.03847891981798342 -0.052531741535963385 0.10028920908149563 -0.09143501515626402 -0.030201747963852832 0.01701965797241765 0.026480593025729533 -0.007323837911549879 -0.011935313293184658 0.010389095727747908 -0.02025219695158824 0.07045298020139797 0.0450166623879566 0.04734249440289592 -0.047054046533920056 -0.004763142698440429 -0.01609301097379566 -0.05222839121504572 0.015982056843031944 -0.02899239101207368 0.03289052741946926 -0.05339805639020768 0.08692218107542951 -0.04524414577692868 0.011076440697463372 0.03999493486579326 -0.028821694129550605 0.04297180555116145 -0.06228092131844054 0.07429170388280958 0.004050862978445327 -0.02645068799321583 -0.012625248787290837 0.03743098758961037 -0.03789153845861196 -0.04823838579680723 -0.024763264352022297 -0.07168287300157808 0.08539589138173782 -0.022150033764548906 0.05623054774664198 0.02200782278189968 -0.045489444244867845 -0.003975617389969268 0.03455798944599568 -0.014111628121721122 0.0565975466217415 0.04979593661718306 0.04581545927765314 -0.023337818959946244 -0.05467297048633659 -0.03089579010130996 0.009911664277990354 0.027566391872874872 -0.10968091900977923 -0.0004659046438624626 0.00821942833684061 -0.012230708532125817 0.06951278803910725 0.02552493485287918 0.06783587723213882 -0.01593077473441776 0.03415411166691876 0.06562350117478429 0.05217899108407187 -0.06323731440191813 -0.009431508823944012 -0.004308800720795112 0.037046981832081265 0.04004829252675386 -0.041104657072992205 -0.0001878967805394689 -0.106416854542096 0.07022000678444937 -0.026942851420385182 0.0026166008228836217 -0.015624431436563528 0.05772883387789604 -0.14340949482318538 -0.0008289757764638986 -0.005344654357382642 -0.02291209756136056 0.08718760687737034 -0.04482149862271302 0.03928547655354847 0.019407403843920656 0.0654149684711645 -0.03221924706625216 -0.035521083757439564 0.055228897010485986 0.01765109355493118 -0.0846684362636963 -0.03150210589133686 0.019526062446259988 0.04608715140562931 -0.026711621920320255 -0.13959052809043365 0.028969141842181696 -0.06185401790531658 -0.10300498695191802 -0.14466587412552617 0.04022771866876067 0.00622960984201699 -0.011357993545917804 0.07021881220462071 0.03218812489834933 0.08163548004576954 -0.0703437640548808 -0.0017450700351481403 -0.08165635647576644 -0.011585557309955991 -0.012556996864921472 0.031655554667410817 0.0023591023013443835 0.03155775321268819 0.035648221321870247 0.10873976988273154 -0.016091384281894043 -0.04764672555935493 0.011957498315165977 -0.04090408880620057 0.07447762465694877 -0.013203794418574803 -0.026861004909226986 -0.02208250375085735 0.03693623281509011 -0.007898326104256018 -0.03236776966531549 0.0841001251322693 -0.04326575954874889 0.0017664174704858163 0.032939131305748444 -0.0823948656402584 0.024256818377155782 -0.0532909851581572 0.04155680598366057 -0.04862121846028572 0.034990120015454894 0.055853004288378874 0.043509114916909675 0.0126934075853026 -0.011682461802888077 -0.02911358508821749 0.0742984718026736 -0.03532984382772268 -0.05237974665427508 0.033606417525646505 -0.04020104391986511 -0.047973864773584986 -0.07289410990319321 -0.02432100575747222 -0.004217755818026383 0.012344429054275421 0.04810857278500913 0.026603358252248358 -0.009703292262634505 -0.010011052728787585 0.025766843267349394 0.0642744994101758 0.006379830501051511 -0.02369468630542984 -0.050147305869797085 -0.072993888762313 0.03365170022863659 0.029192323817551435
